<?xml version="1.0"?>
<opencv_storage>
<opencv_ml_svm>
  <format>3</format>
  <svmType>ONE_CLASS</svmType>
  <kernel>
    <type>LINEAR</type></kernel>
  <nu>5.0000000000000000e-01</nu>
  <term_criteria><epsilon>1.1920928955078125e-07</epsilon>
    <iterations>1000</iterations></term_criteria>
  <var_count>36</var_count>
  <class_count>1</class_count>
  <sv_total>1</sv_total>
  <support_vectors>
    <_>
      8.84224243e+01 7.13419189e+01 8.40139084e+01 9.65787888e+01
      8.61140366e+01 9.63503265e+01 9.19433441e+01 7.75022278e+01
      8.86838455e+01 9.62577667e+01 8.65875397e+01 9.65925980e+01
      9.13251038e+01 8.39443054e+01 9.07668991e+01 9.00397797e+01
      8.76834183e+01 8.94289703e+01 9.09294815e+01 8.60572739e+01
      9.15279922e+01 9.02640610e+01 8.98189392e+01 9.07676086e+01
      8.90343246e+01 9.02779617e+01 8.94041061e+01 8.82607346e+01
      9.09888840e+01 8.79652786e+01 8.99842911e+01 8.96812134e+01
      8.96612091e+01 8.83347473e+01 9.04520569e+01 8.93191071e+01</_></support_vectors>
  <uncompressed_sv_total>311</uncompressed_sv_total>
  <uncompressed_support_vectors>
    <_>
      3.33299160e-01 1.28183186e-01 3.33299160e-01 3.33299160e-01
      1.97758704e-01 3.33299160e-01 3.33299160e-01 9.83350798e-02
      3.33299160e-01 3.33299160e-01 2.06770360e-01 3.33299160e-01
      2.94107527e-01 2.67864406e-01 2.94107527e-01 2.94107527e-01
      2.45595649e-01 2.94107527e-01 2.94107527e-01 2.94107527e-01
      2.94107527e-01 2.94107527e-01 2.94107527e-01 2.94107527e-01
      2.88259089e-01 2.88259089e-01 2.88259089e-01 2.88259089e-01
      2.88259089e-01 2.88259089e-01 2.88259089e-01 2.88259089e-01
      2.88259089e-01 2.88259089e-01 2.88259089e-01 2.88259089e-01</_>
    <_>
      2.93103129e-01 2.93103129e-01 2.28182584e-01 2.93103129e-01
      2.93103129e-01 2.93103129e-01 2.93103129e-01 2.93103129e-01
      2.93103129e-01 2.93103129e-01 2.93103129e-01 2.93103129e-01
      2.97524333e-01 2.97524333e-01 2.97524333e-01 1.88707456e-01
      2.97524333e-01 2.97524333e-01 2.97524333e-01 2.97524333e-01
      2.97524333e-01 2.76060015e-01 2.97524333e-01 2.97524333e-01
      1.94524825e-01 3.06019515e-01 3.06019515e-01 3.06019515e-01
      3.06019515e-01 3.06019515e-01 2.23215699e-01 3.06019515e-01
      3.06019515e-01 2.57770509e-01 3.06019515e-01 3.06019515e-01</_>
    <_>
      3.18778843e-01 1.32028073e-01 3.18778843e-01 3.18778843e-01
      2.33164668e-01 3.18778843e-01 3.18778843e-01 1.89775437e-01
      3.18778843e-01 3.18778843e-01 2.75759608e-01 3.18778843e-01
      3.01775545e-01 3.01775545e-01 3.01775545e-01 3.01775545e-01
      3.01775545e-01 1.90236107e-01 3.01775545e-01 3.01775545e-01
      3.01775545e-01 3.01775545e-01 3.01775545e-01 2.23853037e-01
      3.03532630e-01 3.03532630e-01 2.06250966e-01 3.03532630e-01
      3.03532630e-01 2.82627314e-01 3.03532630e-01 3.03532630e-01
      2.12981135e-01 3.03532630e-01 3.03532630e-01 3.03532630e-01</_>
    <_>
      3.12609464e-01 1.74037933e-01 3.12609464e-01 3.12609464e-01
      2.56108850e-01 3.12609464e-01 3.12609464e-01 2.17846364e-01
      3.12609464e-01 3.12609464e-01 2.67845124e-01 3.12609464e-01
      3.05921763e-01 3.05921763e-01 3.05921763e-01 2.29456007e-01
      3.05921763e-01 2.29324341e-01 3.05921763e-01 3.05921763e-01
      3.05921763e-01 2.91132420e-01 3.05921763e-01 2.41330415e-01
      2.36467198e-01 3.31002414e-01 2.03104392e-01 3.31002414e-01
      3.31002414e-01 2.56591171e-01 2.55291402e-01 3.31002414e-01
      1.93135694e-01 3.31002414e-01 3.31002414e-01 2.71725655e-01</_>
    <_>
      3.25940877e-01 1.08341321e-01 3.25940877e-01 3.25940877e-01
      2.01381356e-01 3.25940877e-01 3.25940877e-01 2.01484919e-01
      3.25940877e-01 3.25940877e-01 2.32282415e-01 3.25940877e-01
      2.96915144e-01 2.96915144e-01 2.96915144e-01 2.78073400e-01
      2.96915144e-01 2.38455221e-01 2.96915144e-01 2.96915144e-01
      2.96915144e-01 2.96915144e-01 2.96915144e-01 2.63476491e-01
      3.04536104e-01 3.15317720e-01 1.96563050e-01 3.15317720e-01
      3.15317720e-01 2.70016849e-01 3.15317720e-01 3.15317720e-01
      1.89942896e-01 3.15317720e-01 3.15317720e-01 2.45978966e-01</_>
    <_>
      3.03720862e-01 2.01317385e-01 3.03720862e-01 3.03720862e-01
      3.03720862e-01 3.03720862e-01 3.03720862e-01 1.84317425e-01
      3.03720862e-01 3.03720862e-01 3.03720862e-01 3.03720862e-01
      2.91504294e-01 2.91504294e-01 2.91504294e-01 2.81025976e-01
      2.91504294e-01 2.91504294e-01 2.91504294e-01 2.87937820e-01
      2.91504294e-01 2.65387565e-01 2.91504294e-01 2.91504294e-01
      2.07128555e-01 3.03219736e-01 3.03219736e-01 3.03219736e-01
      3.03219736e-01 3.03219736e-01 2.23144040e-01 3.03219736e-01
      3.03219736e-01 2.77118474e-01 3.03219736e-01 3.03219736e-01</_>
    <_>
      3.20585489e-01 1.29527837e-01 3.20585489e-01 3.20585489e-01
      2.49576941e-01 3.20585489e-01 3.20585489e-01 1.98766470e-01
      3.20585489e-01 3.20585489e-01 2.36690015e-01 3.20585489e-01
      2.93051809e-01 2.93051809e-01 2.93051809e-01 2.93051809e-01
      2.93051809e-01 2.28907466e-01 2.93051809e-01 2.93051809e-01
      2.93051809e-01 2.93051809e-01 2.93051809e-01 2.93051809e-01
      3.20519924e-01 3.20519924e-01 1.87733665e-01 3.20519924e-01
      3.20519924e-01 1.68042347e-01 3.20519924e-01 3.20519924e-01
      1.86894715e-01 3.20519924e-01 3.20519924e-01 2.76624978e-01</_>
    <_>
      3.24430376e-01 1.42560437e-01 3.24430376e-01 3.24430376e-01
      2.21796557e-01 3.24430376e-01 3.24430376e-01 1.88522384e-01
      3.24430376e-01 3.24430376e-01 2.22844794e-01 3.24430376e-01
      2.94440478e-01 2.94440478e-01 2.94440478e-01 2.94440478e-01
      2.93371290e-01 2.40242854e-01 2.94440478e-01 2.94440478e-01
      2.94440478e-01 2.94440478e-01 2.94440478e-01 2.70217866e-01
      3.27414334e-01 3.27414334e-01 2.02167198e-01 3.27414334e-01
      3.27414334e-01 1.75434545e-01 3.27414334e-01 3.27414334e-01
      1.47049516e-01 3.27414334e-01 3.27414334e-01 2.14137658e-01</_>
    <_>
      3.18601429e-01 1.60351098e-01 3.18601429e-01 3.18601429e-01
      2.14216739e-01 3.18601429e-01 3.18601429e-01 1.98984176e-01
      3.18601429e-01 3.18601429e-01 2.71229744e-01 3.18601429e-01
      3.08074147e-01 2.45387152e-01 2.68329829e-01 3.08074147e-01
      3.08074147e-01 1.99260831e-01 3.08074147e-01 3.08074147e-01
      3.08074147e-01 3.08074147e-01 3.08074147e-01 2.56365836e-01
      3.08521211e-01 3.08521211e-01 2.48004556e-01 3.08521211e-01
      2.64880449e-01 2.38714084e-01 3.08521211e-01 3.08521211e-01
      2.30230242e-01 3.08521211e-01 2.98264265e-01 3.08521211e-01</_>
    <_>
      3.11470807e-01 2.17714787e-01 3.11470807e-01 3.11470807e-01
      2.33389392e-01 3.11470807e-01 3.11470807e-01 2.60218501e-01
      3.11470807e-01 3.11470807e-01 2.26254597e-01 3.11470807e-01
      2.94908911e-01 2.94908911e-01 2.94908911e-01 2.94908911e-01
      2.94908911e-01 2.62185216e-01 2.94908911e-01 2.94908911e-01
      2.94908911e-01 2.94908911e-01 2.94908911e-01 2.42072806e-01
      2.93828666e-01 2.93828666e-01 2.93828666e-01 2.61642128e-01
      2.93828666e-01 2.93828666e-01 2.93828666e-01 2.93828666e-01
      2.71738023e-01 2.93828666e-01 2.78833658e-01 2.93828666e-01</_>
    <_>
      3.21662009e-01 1.72018185e-01 3.21662009e-01 3.21428001e-01
      1.73587859e-01 3.21662009e-01 3.21662009e-01 1.47936136e-01
      3.21662009e-01 3.21662009e-01 2.95967549e-01 3.21662009e-01
      2.68331319e-01 2.24418879e-01 3.33058476e-01 1.67754650e-01
      1.87287748e-01 1.85991585e-01 3.33058476e-01 3.33058476e-01
      3.33058476e-01 3.33058476e-01 3.33058476e-01 3.33058476e-01
      1.99724779e-01 3.16230208e-01 2.49976009e-01 1.68764994e-01
      3.16230208e-01 2.56842703e-01 3.16230208e-01 3.16230208e-01
      3.16230208e-01 3.16230208e-01 3.16230208e-01 3.16230208e-01</_>
    <_>
      3.34921449e-01 1.03757367e-01 3.34921449e-01 3.34921449e-01
      1.89548746e-01 3.34921449e-01 3.34921449e-01 1.00506678e-01
      3.34921449e-01 3.34921449e-01 2.06103399e-01 3.34921449e-01
      3.05095792e-01 2.51381069e-01 3.05095792e-01 3.05095792e-01
      2.43919060e-01 3.05095792e-01 3.05095792e-01 2.43961841e-01
      3.05095792e-01 3.05095792e-01 2.64721692e-01 3.05095792e-01
      2.88259089e-01 2.88259089e-01 2.88259089e-01 2.88259089e-01
      2.88259089e-01 2.88259089e-01 2.88259089e-01 2.88259089e-01
      2.88259089e-01 2.88259089e-01 2.88259089e-01 2.88259089e-01</_>
    <_>
      3.45330954e-01 1.06632002e-01 3.45330954e-01 3.45330954e-01
      8.00859779e-02 3.45330954e-01 3.45330954e-01 1.06744841e-01
      3.45330954e-01 3.45330954e-01 1.15512781e-01 3.45330954e-01
      3.15600127e-01 1.91631019e-01 3.15600127e-01 2.85360336e-01
      2.05688581e-01 2.21988454e-01 3.15600127e-01 3.02311778e-01
      3.15600127e-01 3.13199461e-01 3.15600127e-01 3.15600127e-01
      2.36856446e-01 3.14158410e-01 2.30865195e-01 1.86046168e-01
      3.14158410e-01 2.51562536e-01 3.14158410e-01 3.14158410e-01
      3.14158410e-01 3.14158410e-01 3.14158410e-01 3.14158410e-01</_>
    <_>
      3.20493519e-01 1.38312310e-01 3.20493519e-01 3.20493519e-01
      3.20493519e-01 3.20493519e-01 3.20493519e-01 1.61462650e-01
      3.20493519e-01 3.20493519e-01 1.91541195e-01 3.05254638e-01
      3.11745197e-01 3.11745197e-01 3.11745197e-01 3.11745197e-01
      3.11745197e-01 3.11745197e-01 3.10730428e-01 2.28485197e-01
      2.45653093e-01 2.09589496e-01 3.07957381e-01 2.56719172e-01
      3.16497266e-01 3.16497266e-01 3.16497266e-01 3.16497266e-01
      3.16497266e-01 3.13035935e-01 2.16795847e-01 3.16497266e-01
      2.42186353e-01 2.29521796e-01 3.16497266e-01 1.98286474e-01</_>
    <_>
      3.07947576e-01 1.87052563e-01 3.07947576e-01 3.07947576e-01
      3.07947576e-01 3.07947576e-01 3.07947576e-01 3.07947576e-01
      3.07947576e-01 3.07947576e-01 1.98277399e-01 2.62935251e-01
      3.12151372e-01 3.12151372e-01 3.12151372e-01 3.12151372e-01
      3.12151372e-01 3.12151372e-01 3.12151372e-01 2.21448764e-01
      2.78787106e-01 2.61634231e-01 2.15149328e-01 2.70754874e-01
      3.15309763e-01 3.15309763e-01 3.15309763e-01 3.15309763e-01
      3.15309763e-01 3.15309763e-01 2.31227249e-01 3.15309763e-01
      2.18324319e-01 2.52089977e-01 3.15309763e-01 1.91850334e-01</_>
    <_>
      3.14478785e-01 1.38474643e-01 3.14478785e-01 3.14478785e-01
      2.68374681e-01 3.14478785e-01 3.14478785e-01 1.69543073e-01
      3.14478785e-01 3.14478785e-01 2.92809486e-01 3.14478785e-01
      2.88259089e-01 2.88259089e-01 2.88259089e-01 2.88259089e-01
      2.88259089e-01 2.88259089e-01 2.88259089e-01 2.88259089e-01
      2.88259089e-01 2.88259089e-01 2.88259089e-01 2.88259089e-01
      2.54823565e-01 2.91103870e-01 2.91103870e-01 2.91103870e-01
      2.91103870e-01 2.91103870e-01 2.91103870e-01 2.91103870e-01
      2.91103870e-01 2.91103870e-01 2.91103870e-01 2.91103870e-01</_>
    <_>
      3.04331779e-01 1.87314987e-01 2.33418539e-01 3.04331779e-01
      2.71711975e-01 3.04331779e-01 3.04331779e-01 3.04331779e-01
      3.04331779e-01 3.04331779e-01 3.04331779e-01 3.04331779e-01
      2.88259089e-01 2.88259089e-01 2.88259089e-01 2.88259089e-01
      2.88259089e-01 2.88259089e-01 2.88259089e-01 2.88259089e-01
      2.88259089e-01 2.88259089e-01 2.88259089e-01 2.88259089e-01
      2.00393885e-01 3.05799514e-01 3.05799514e-01 2.55893975e-01
      3.05799514e-01 3.05799514e-01 2.74590611e-01 3.05799514e-01
      3.05799514e-01 2.60380924e-01 3.05799514e-01 3.05799514e-01</_>
    <_>
      3.05787951e-01 3.05787951e-01 3.05787951e-01 3.05787951e-01
      2.63217211e-01 3.05787951e-01 3.05787951e-01 2.36304089e-01
      3.05787951e-01 3.05787951e-01 1.73968896e-01 3.05787951e-01
      2.88259089e-01 2.88259089e-01 2.88259089e-01 2.88259089e-01
      2.88259089e-01 2.88259089e-01 2.88259089e-01 2.88259089e-01
      2.88259089e-01 2.88259089e-01 2.88259089e-01 2.88259089e-01
      2.91949719e-01 2.91949719e-01 2.91949719e-01 2.91949719e-01
      2.91949719e-01 2.91949719e-01 2.91949719e-01 2.91949719e-01
      2.43930042e-01 2.91949719e-01 2.91949719e-01 2.91949719e-01</_>
    <_>
      3.08046013e-01 3.08046013e-01 3.08046013e-01 3.08046013e-01
      2.59106159e-01 3.08046013e-01 3.08046013e-01 2.36252308e-01
      3.08046013e-01 3.08046013e-01 1.41207591e-01 3.08046013e-01
      2.95277208e-01 2.86570966e-01 2.95277208e-01 2.95277208e-01
      2.95277208e-01 2.95277208e-01 2.95277208e-01 2.07461223e-01
      2.95277208e-01 2.95277208e-01 2.95277208e-01 2.95277208e-01
      2.94445276e-01 2.94445276e-01 2.94445276e-01 2.94445276e-01
      2.94445276e-01 2.94445276e-01 2.94445276e-01 2.94445276e-01
      2.18281358e-01 2.94445276e-01 2.94445276e-01 2.87107706e-01</_>
    <_>
      3.38411391e-01 1.11881740e-01 3.38411391e-01 3.38411391e-01
      1.49224252e-01 3.38411391e-01 3.38411391e-01 1.03735462e-01
      3.38411391e-01 3.38411391e-01 1.86800092e-01 3.38411391e-01
      3.11619967e-01 1.91593572e-01 3.11619967e-01 3.11619967e-01
      2.26683825e-01 3.11619967e-01 3.11619967e-01 2.49421373e-01
      3.11619967e-01 3.11619967e-01 2.64055997e-01 3.11619967e-01
      2.88259089e-01 2.88259089e-01 2.88259089e-01 2.88259089e-01
      2.88259089e-01 2.88259089e-01 2.88259089e-01 2.88259089e-01
      2.88259089e-01 2.88259089e-01 2.88259089e-01 2.88259089e-01</_>
    <_>
      3.15199882e-01 2.86219835e-01 3.15199882e-01 3.15199882e-01
      2.49708205e-01 3.15199882e-01 3.15199882e-01 1.64803520e-01
      3.15199882e-01 3.15199882e-01 1.74947724e-01 3.15199882e-01
      2.88259089e-01 2.88259089e-01 2.88259089e-01 2.88259089e-01
      2.88259089e-01 2.88259089e-01 2.88259089e-01 2.88259089e-01
      2.88259089e-01 2.88259089e-01 2.88259089e-01 2.88259089e-01
      2.88259089e-01 2.88259089e-01 2.88259089e-01 2.88259089e-01
      2.88259089e-01 2.88259089e-01 2.88259089e-01 2.88259089e-01
      2.88259089e-01 2.88259089e-01 2.88259089e-01 2.88259089e-01</_>
    <_>
      3.03492963e-01 3.03492963e-01 3.03492963e-01 3.03492963e-01
      2.71964431e-01 3.03492963e-01 3.03492963e-01 2.06037059e-01
      3.03492963e-01 3.03492963e-01 2.27111787e-01 3.03492963e-01
      2.88259089e-01 2.88259089e-01 2.88259089e-01 2.88259089e-01
      2.88259089e-01 2.88259089e-01 2.88259089e-01 2.88259089e-01
      2.88259089e-01 2.88259089e-01 2.88259089e-01 2.88259089e-01
      3.02323908e-01 3.02323908e-01 2.29978353e-01 3.02323908e-01
      3.02323908e-01 2.80549735e-01 3.02323908e-01 3.02323908e-01
      2.19601437e-01 3.02323908e-01 3.02323908e-01 2.93186247e-01</_>
    <_>
      3.13734174e-01 3.13734174e-01 3.13734174e-01 3.13734174e-01
      2.15848744e-01 3.13734174e-01 3.13734174e-01 1.91929609e-01
      3.13734174e-01 3.13734174e-01 1.66057795e-01 3.13734174e-01
      2.88859934e-01 2.81554371e-01 2.88859934e-01 2.88859934e-01
      2.88859934e-01 2.88859934e-01 2.88859934e-01 2.88859934e-01
      2.88859934e-01 2.88859934e-01 2.88859934e-01 2.88859934e-01
      2.88400412e-01 2.88400412e-01 2.88400412e-01 2.88400412e-01
      2.88400412e-01 2.88400412e-01 2.88400412e-01 2.88400412e-01
      2.86697209e-01 2.88400412e-01 2.88400412e-01 2.88400412e-01</_>
    <_>
      3.09441179e-01 3.09441179e-01 3.09441179e-01 3.09441179e-01
      2.59073585e-01 3.09441179e-01 3.09441179e-01 1.98307961e-01
      3.09441179e-01 3.09441179e-01 1.69346452e-01 3.09441179e-01
      2.96571821e-01 2.43081823e-01 2.96571821e-01 2.96571821e-01
      2.96571821e-01 2.96571821e-01 2.96571821e-01 2.41659224e-01
      2.96571821e-01 2.96571821e-01 2.96571821e-01 2.96571821e-01
      2.88696229e-01 2.88696229e-01 2.88696229e-01 2.88696229e-01
      2.88696229e-01 2.88696229e-01 2.88696229e-01 2.88696229e-01
      2.83398241e-01 2.88696229e-01 2.88696229e-01 2.88696229e-01</_>
    <_>
      3.11647683e-01 3.11647683e-01 3.11647683e-01 3.11647683e-01
      2.31257305e-01 3.11647683e-01 3.11647683e-01 1.95911884e-01
      3.11647683e-01 3.11647683e-01 1.75801396e-01 3.11647683e-01
      2.88696617e-01 2.83393830e-01 2.88696617e-01 2.88696617e-01
      2.88696617e-01 2.88696617e-01 2.88696617e-01 2.88696617e-01
      2.88696617e-01 2.88696617e-01 2.88696617e-01 2.88696617e-01
      2.89368451e-01 2.89368451e-01 2.89368451e-01 2.89368451e-01
      2.89368451e-01 2.89368451e-01 2.89368451e-01 2.89368451e-01
      2.75741696e-01 2.89368451e-01 2.89368451e-01 2.89368451e-01</_>
    <_>
      3.08596760e-01 3.08596760e-01 3.08596760e-01 3.08596760e-01
      2.37544656e-01 3.08596760e-01 3.08596760e-01 2.33276233e-01
      3.08596760e-01 3.08596760e-01 1.70245081e-01 3.08596760e-01
      2.88282514e-01 2.88282514e-01 2.88282514e-01 2.88282514e-01
      2.88282514e-01 2.88282514e-01 2.88282514e-01 2.88000703e-01
      2.88282514e-01 2.88282514e-01 2.88282514e-01 2.88282514e-01
      2.91774839e-01 2.91774839e-01 2.77406335e-01 2.91774839e-01
      2.91774839e-01 2.91774839e-01 2.91774839e-01 2.91774839e-01
      2.62306243e-01 2.91774839e-01 2.91774839e-01 2.91774839e-01</_>
    <_>
      3.37084144e-01 1.42684564e-01 3.37084144e-01 3.37084144e-01
      1.40895590e-01 3.37084144e-01 3.37084144e-01 1.22383110e-01
      3.37084144e-01 3.37084144e-01 1.80106252e-01 3.37084144e-01
      3.15996021e-01 1.71759173e-01 3.15996021e-01 3.15996021e-01
      2.16076359e-01 3.15996021e-01 3.15996021e-01 2.37158701e-01
      3.15996021e-01 3.15996021e-01 2.56086200e-01 3.15996021e-01
      2.89084524e-01 2.79003471e-01 2.89084524e-01 2.89084524e-01
      2.89084524e-01 2.89084524e-01 2.89084524e-01 2.89084524e-01
      2.89084524e-01 2.89084524e-01 2.89084524e-01 2.89084524e-01</_>
    <_>
      3.05704296e-01 1.66399673e-01 3.05704296e-01 3.05704296e-01
      1.86293870e-01 3.05704296e-01 3.05704296e-01 3.05704296e-01
      3.05704296e-01 3.05704296e-01 3.05704296e-01 3.05704296e-01
      2.92005330e-01 2.43195012e-01 2.92005330e-01 2.92005330e-01
      2.92005330e-01 2.92005330e-01 2.92005330e-01 2.92005330e-01
      2.92005330e-01 2.92005330e-01 2.92005330e-01 2.92005330e-01
      2.88413942e-01 2.88413942e-01 2.86547422e-01 2.88413942e-01
      2.88413942e-01 2.88413942e-01 2.88413942e-01 2.88413942e-01
      2.88413942e-01 2.88413942e-01 2.88413942e-01 2.88413942e-01</_>
    <_>
      3.01799744e-01 1.90690756e-01 3.01799744e-01 3.01799744e-01
      2.23137558e-01 3.01799744e-01 3.01799744e-01 3.01799744e-01
      3.01799744e-01 3.01799744e-01 3.01799744e-01 3.01799744e-01
      2.95174927e-01 2.04380378e-01 2.95174927e-01 2.95174927e-01
      2.89822012e-01 2.95174927e-01 2.95174927e-01 2.95174927e-01
      2.95174927e-01 2.95174927e-01 2.95174927e-01 2.95174927e-01
      2.88259089e-01 2.88259089e-01 2.88259089e-01 2.88259089e-01
      2.88259089e-01 2.88259089e-01 2.88259089e-01 2.88259089e-01
      2.88259089e-01 2.88259089e-01 2.88259089e-01 2.88259089e-01</_>
    <_>
      3.05055767e-01 2.14272872e-01 3.05055767e-01 3.05055767e-01
      1.42998904e-01 3.05055767e-01 3.05055767e-01 3.05055767e-01
      3.05055767e-01 3.05055767e-01 3.05055767e-01 3.05055767e-01
      2.97122806e-01 1.61026850e-01 2.97122806e-01 2.97122806e-01
      2.97122806e-01 2.97122806e-01 2.97122806e-01 2.97122806e-01
      2.97122806e-01 2.97122806e-01 2.97122806e-01 2.97122806e-01
      2.88259089e-01 2.88259089e-01 2.88259089e-01 2.88259089e-01
      2.88259089e-01 2.88259089e-01 2.88259089e-01 2.88259089e-01
      2.88259089e-01 2.88259089e-01 2.88259089e-01 2.88259089e-01</_>
    <_>
      3.07816178e-01 1.77623108e-01 3.07816178e-01 3.07816178e-01
      1.33664668e-01 3.07816178e-01 3.07816178e-01 3.07816178e-01
      3.07816178e-01 3.07816178e-01 3.07816178e-01 3.07816178e-01
      2.95728028e-01 1.87187716e-01 2.95728028e-01 2.95728028e-01
      2.95728028e-01 2.95728028e-01 2.95728028e-01 2.95728028e-01
      2.95728028e-01 2.95728028e-01 2.95728028e-01 2.95728028e-01
      2.88259089e-01 2.88259089e-01 2.88259089e-01 2.88259089e-01
      2.88259089e-01 2.88259089e-01 2.88259089e-01 2.88259089e-01
      2.88259089e-01 2.88259089e-01 2.88259089e-01 2.88259089e-01</_>
    <_>
      3.05209488e-01 2.10342646e-01 3.05209488e-01 3.05209488e-01
      1.45526826e-01 3.05209488e-01 3.05209488e-01 3.05209488e-01
      3.05209488e-01 3.05209488e-01 3.05209488e-01 3.05209488e-01
      2.95584172e-01 1.89674750e-01 2.95584172e-01 2.95584172e-01
      2.95584172e-01 2.95584172e-01 2.95584172e-01 2.95584172e-01
      2.95584172e-01 2.95584172e-01 2.95584172e-01 2.95584172e-01
      2.88259089e-01 2.88259089e-01 2.88259089e-01 2.88259089e-01
      2.88259089e-01 2.88259089e-01 2.88259089e-01 2.88259089e-01
      2.88259089e-01 2.88259089e-01 2.88259089e-01 2.88259089e-01</_>
    <_>
      3.05171728e-01 1.92635670e-01 3.05171728e-01 3.05171728e-01
      1.68950170e-01 3.05171728e-01 3.05171728e-01 3.05171728e-01
      3.05171728e-01 3.05171728e-01 3.05171728e-01 3.05171728e-01
      2.98357993e-01 1.48634449e-01 2.98357993e-01 2.98357993e-01
      2.91121066e-01 2.98357993e-01 2.98357993e-01 2.98357993e-01
      2.98357993e-01 2.98357993e-01 2.98357993e-01 2.98357993e-01
      2.89151222e-01 2.89151222e-01 2.89151222e-01 2.78240532e-01
      2.89151222e-01 2.89151222e-01 2.89151222e-01 2.89151222e-01
      2.89151222e-01 2.89151222e-01 2.89151222e-01 2.89151222e-01</_>
    <_>
      3.26058030e-01 2.36436859e-01 3.26058030e-01 3.26058030e-01
      1.51525751e-01 3.26058030e-01 3.26058030e-01 1.92438513e-01
      3.26058030e-01 3.26058030e-01 1.74173445e-01 3.26058030e-01
      3.00132453e-01 2.27624685e-01 3.00132453e-01 3.00132453e-01
      3.00132453e-01 3.00132453e-01 3.00132453e-01 2.35133022e-01
      3.00132453e-01 3.00132453e-01 2.81398237e-01 3.00132453e-01
      2.94264287e-01 2.94264287e-01 2.94264287e-01 2.53962725e-01
      2.94264287e-01 2.94264287e-01 2.94264287e-01 2.58162320e-01
      2.94264287e-01 2.94264287e-01 2.94264287e-01 2.94264287e-01</_>
    <_>
      3.40444386e-01 7.16353059e-02 3.40444386e-01 3.40444386e-01
      1.47815987e-01 3.40444386e-01 3.40444386e-01 1.22152895e-01
      3.40444386e-01 3.40444386e-01 1.65761858e-01 3.40444386e-01
      3.01240295e-01 2.25121006e-01 3.01240295e-01 2.52771586e-01
      3.01240295e-01 3.01240295e-01 3.01240295e-01 2.56330490e-01
      3.01240295e-01 3.01240295e-01 3.01240295e-01 3.01240295e-01
      1.81284934e-01 3.11241716e-01 3.11241716e-01 2.06759557e-01
      2.98295468e-01 3.11241716e-01 3.11241716e-01 3.11241716e-01
      3.11241716e-01 2.39425883e-01 3.11241716e-01 3.11241716e-01</_>
    <_>
      3.01952362e-01 3.01952362e-01 3.01952362e-01 3.01952362e-01
      3.01952362e-01 3.01952362e-01 3.01952362e-01 2.17957348e-01
      3.01952362e-01 3.01952362e-01 1.94229499e-01 3.01952362e-01
      2.97928154e-01 2.97928154e-01 2.97928154e-01 2.97928154e-01
      2.97928154e-01 2.97928154e-01 2.97928154e-01 2.42244691e-01
      2.97928154e-01 2.97928154e-01 2.25230187e-01 2.97928154e-01
      2.94094414e-01 2.94094414e-01 2.94094414e-01 2.94094414e-01
      2.94094414e-01 2.94094414e-01 2.94094414e-01 2.13669479e-01
      2.94094414e-01 2.94094414e-01 2.94094414e-01 2.94094414e-01</_>
    <_>
      3.02797437e-01 2.72543907e-01 3.02797437e-01 3.02797437e-01
      2.92426527e-01 3.02797437e-01 3.02797437e-01 2.64529884e-01
      3.02797437e-01 3.02797437e-01 1.83614984e-01 3.02797437e-01
      2.99707025e-01 2.99707025e-01 2.99707025e-01 2.99707025e-01
      2.99707025e-01 2.99707025e-01 2.99707025e-01 1.90909028e-01
      2.99707025e-01 2.99707025e-01 2.49631688e-01 2.99707025e-01
      2.90807962e-01 2.90807962e-01 2.90807962e-01 2.90807962e-01
      2.90807962e-01 2.90807962e-01 2.90807962e-01 2.58518994e-01
      2.90807962e-01 2.90807962e-01 2.90807962e-01 2.90807962e-01</_>
    <_>
      3.34497899e-01 1.05150230e-01 2.54760951e-01 3.34497899e-01
      2.24226817e-01 3.34497899e-01 3.34497899e-01 2.38666132e-01
      3.34497899e-01 3.34497899e-01 1.73887774e-01 3.34497899e-01
      3.01328778e-01 3.01328778e-01 3.01328778e-01 3.01328778e-01
      3.01328778e-01 3.01328778e-01 3.01328778e-01 1.80433452e-01
      3.01328778e-01 3.01328778e-01 2.37576097e-01 3.01328778e-01
      2.95062959e-01 2.95062959e-01 2.95062959e-01 2.95062959e-01
      2.86006212e-01 2.95062959e-01 2.95062959e-01 2.14174584e-01
      2.95062959e-01 2.95062959e-01 2.92953759e-01 2.95062959e-01</_>
    <_>
      2.98353523e-01 2.62562305e-01 2.98353523e-01 2.98353523e-01
      2.98353523e-01 2.98353523e-01 2.98353523e-01 2.98353523e-01
      2.98353523e-01 2.98353523e-01 1.94759622e-01 2.98353523e-01
      2.91569740e-01 2.91569740e-01 2.91569740e-01 2.91569740e-01
      2.91569740e-01 2.91569740e-01 2.91569740e-01 2.48886287e-01
      2.91569740e-01 2.91569740e-01 2.91569740e-01 2.91569740e-01
      2.91912436e-01 2.91912436e-01 2.91912436e-01 2.91912436e-01
      2.91912436e-01 2.91912436e-01 2.91912436e-01 2.44420648e-01
      2.91912436e-01 2.91912436e-01 2.91912436e-01 2.91912436e-01</_>
    <_>
      3.10098410e-01 2.52023906e-01 3.10098410e-01 3.10098410e-01
      2.86822677e-01 3.10098410e-01 3.10098410e-01 2.40470737e-01
      3.10098410e-01 3.10098410e-01 1.54930934e-01 3.10098410e-01
      2.99825519e-01 2.73729622e-01 2.99825519e-01 2.99825519e-01
      2.99825519e-01 2.99825519e-01 2.99825519e-01 1.52061328e-01
      2.99825519e-01 2.99825519e-01 2.99825519e-01 2.99825519e-01
      2.90431321e-01 2.90431321e-01 2.90431321e-01 2.90431321e-01
      2.90431321e-01 2.90431321e-01 2.90431321e-01 2.69327372e-01
      2.90431321e-01 2.90431321e-01 2.84705251e-01 2.90431321e-01</_>
    <_>
      3.10206145e-01 2.34899953e-01 3.10206145e-01 3.10206145e-01
      3.01748991e-01 3.10206145e-01 3.10206145e-01 2.31149063e-01
      3.10206145e-01 3.10206145e-01 1.65581226e-01 3.10206145e-01
      2.96390474e-01 2.92585403e-01 2.96390474e-01 2.96390474e-01
      2.96390474e-01 2.96390474e-01 2.96390474e-01 1.87081248e-01
      2.96390474e-01 2.96390474e-01 2.92928338e-01 2.96390474e-01
      2.88259089e-01 2.88259089e-01 2.88259089e-01 2.88259089e-01
      2.88259089e-01 2.88259089e-01 2.88259089e-01 2.88259089e-01
      2.88259089e-01 2.88259089e-01 2.88259089e-01 2.88259089e-01</_>
    <_>
      3.02283466e-01 2.16698751e-01 3.02283466e-01 3.02283466e-01
      1.90441981e-01 3.02283466e-01 3.02283466e-01 3.02283466e-01
      3.02283466e-01 3.02283466e-01 3.02283466e-01 3.02283466e-01
      2.88840592e-01 2.81772792e-01 2.88840592e-01 2.88840592e-01
      2.88840592e-01 2.88840592e-01 2.88840592e-01 2.88840592e-01
      2.88840592e-01 2.88840592e-01 2.88840592e-01 2.88840592e-01
      2.88259089e-01 2.88259089e-01 2.88259089e-01 2.88259089e-01
      2.88259089e-01 2.88259089e-01 2.88259089e-01 2.88259089e-01
      2.88259089e-01 2.88259089e-01 2.88259089e-01 2.88259089e-01</_>
    <_>
      3.40572327e-01 8.43055025e-02 3.40572327e-01 3.40572327e-01
      1.50305018e-01 3.40572327e-01 3.40572327e-01 9.19036642e-02
      3.40572327e-01 3.40572327e-01 1.74744844e-01 3.40572327e-01
      2.95946956e-01 2.66613811e-01 2.95946956e-01 2.48617157e-01
      2.95946956e-01 2.95946956e-01 2.95946956e-01 2.75477886e-01
      2.95946956e-01 2.95946956e-01 2.95946956e-01 2.95946956e-01
      1.82815626e-01 3.14310461e-01 3.14310461e-01 2.55888641e-01
      3.04061353e-01 3.14310461e-01 2.52909511e-01 3.14310461e-01
      3.14310461e-01 2.23617554e-01 3.14310461e-01 3.14310461e-01</_>
    <_>
      3.00747931e-01 2.39516661e-01 3.00747931e-01 3.00747931e-01
      1.87439367e-01 3.00747931e-01 3.00747931e-01 3.00747931e-01
      3.00747931e-01 3.00747931e-01 3.00747931e-01 3.00747931e-01
      2.95200437e-01 1.96147621e-01 2.95200437e-01 2.95200437e-01
      2.95200437e-01 2.95200437e-01 2.95200437e-01 2.95200437e-01
      2.95200437e-01 2.95200437e-01 2.95200437e-01 2.95200437e-01
      2.84054786e-01 2.93201417e-01 2.83547699e-01 2.49559507e-01
      2.93201417e-01 2.93201417e-01 2.93201417e-01 2.93201417e-01
      2.93201417e-01 2.93201417e-01 2.93201417e-01 2.93201417e-01</_>
    <_>
      3.00977141e-01 3.00977141e-01 3.00977141e-01 3.00977141e-01
      2.91906983e-01 3.00977141e-01 3.00977141e-01 2.38370344e-01
      3.00977141e-01 3.00977141e-01 1.99191824e-01 3.00977141e-01
      2.90608227e-01 2.90608227e-01 2.90608227e-01 2.90608227e-01
      2.90608227e-01 2.90608227e-01 2.90608227e-01 2.60981798e-01
      2.90608227e-01 2.90608227e-01 2.90608227e-01 2.90608227e-01
      2.77294010e-01 2.90915161e-01 2.88399249e-01 2.90915161e-01
      2.90915161e-01 2.74485379e-01 2.90915161e-01 2.90915161e-01
      2.90915161e-01 2.90915161e-01 2.90915161e-01 2.90915161e-01</_>
    <_>
      3.44777286e-01 7.63457939e-02 3.44777286e-01 3.44777286e-01
      1.23501018e-01 3.44777286e-01 3.44777286e-01 1.01901077e-01
      3.44777286e-01 3.44777286e-01 1.18823983e-01 3.44777286e-01
      3.01992744e-01 2.46401429e-01 3.01992744e-01 2.76866555e-01
      3.01992744e-01 3.01992744e-01 3.01992744e-01 2.46274233e-01
      3.01992744e-01 3.01992744e-01 2.63373584e-01 3.01992744e-01
      1.79560408e-01 3.16305071e-01 3.16305071e-01 1.98774815e-01
      3.16305071e-01 3.16305071e-01 2.71573782e-01 3.16305071e-01
      3.16305071e-01 2.25704730e-01 3.16305071e-01 3.16305071e-01</_>
    <_>
      3.02562267e-01 3.02562267e-01 3.02562267e-01 3.02562267e-01
      2.80157655e-01 3.02562267e-01 3.02562267e-01 2.38243371e-01
      3.02562267e-01 3.02562267e-01 1.94507658e-01 3.02562267e-01
      2.92347074e-01 2.92347074e-01 2.92347074e-01 2.92347074e-01
      2.92347074e-01 2.92347074e-01 2.92347074e-01 2.38628730e-01
      2.92347074e-01 2.92347074e-01 2.92347074e-01 2.92347074e-01
      2.88259089e-01 2.88259089e-01 2.88259089e-01 2.88259089e-01
      2.88259089e-01 2.88259089e-01 2.88259089e-01 2.88259089e-01
      2.88259089e-01 2.88259089e-01 2.88259089e-01 2.88259089e-01</_>
    <_>
      3.19330841e-01 2.76188105e-01 3.19330841e-01 3.19330841e-01
      1.50897190e-01 3.19330841e-01 3.19330841e-01 1.92340314e-01
      3.19330841e-01 3.19330841e-01 2.12101355e-01 3.19330841e-01
      2.92318553e-01 2.39013672e-01 2.92318553e-01 2.92318553e-01
      2.92318553e-01 2.92318553e-01 2.92318553e-01 2.92318553e-01
      2.92318553e-01 2.92318553e-01 2.92318553e-01 2.92318553e-01
      2.90808886e-01 2.90808886e-01 2.58507431e-01 2.90808886e-01
      2.90808886e-01 2.90808886e-01 2.90808886e-01 2.90808886e-01
      2.90808886e-01 2.90808886e-01 2.90808886e-01 2.90808886e-01</_>
    <_>
      3.13778728e-01 3.08688730e-01 3.13778728e-01 3.13778728e-01
      2.36828357e-01 3.13778728e-01 3.13778728e-01 2.07760200e-01
      3.13778728e-01 3.13778728e-01 1.21107876e-01 3.13778728e-01
      2.92750210e-01 2.92750210e-01 2.92750210e-01 2.92750210e-01
      2.92750210e-01 2.92750210e-01 2.92750210e-01 2.33120590e-01
      2.92750210e-01 2.92750210e-01 2.92750210e-01 2.92750210e-01
      2.90058106e-01 2.89046258e-01 2.88080126e-01 2.90058106e-01
      2.90058106e-01 2.90058106e-01 2.90058106e-01 2.90058106e-01
      2.70851165e-01 2.90058106e-01 2.90058106e-01 2.90058106e-01</_>
    <_>
      3.14668983e-01 2.68436223e-01 3.14668983e-01 3.14668983e-01
      2.29446113e-01 3.14668983e-01 3.14668983e-01 1.98297173e-01
      3.14668983e-01 3.14668983e-01 2.01737210e-01 3.14668983e-01
      2.95246124e-01 2.83955872e-01 2.95246124e-01 2.77989894e-01
      2.61352062e-01 2.95246124e-01 2.95246124e-01 2.71059394e-01
      2.95246124e-01 2.95246124e-01 2.95246124e-01 2.95246124e-01
      2.87271708e-01 2.87030309e-01 2.55595684e-01 2.95673341e-01
      2.95673341e-01 2.95673341e-01 2.95673341e-01 2.95673341e-01
      2.95673341e-01 2.95673341e-01 2.95673341e-01 2.59659499e-01</_>
    <_>
      3.03761244e-01 3.03761244e-01 3.03761244e-01 3.03761244e-01
      3.03761244e-01 3.03761244e-01 3.03761244e-01 2.06071109e-01
      3.03761244e-01 3.03761244e-01 1.78298816e-01 3.03761244e-01
      2.94198841e-01 2.94198841e-01 2.94198841e-01 2.94198841e-01
      2.94198841e-01 2.94198841e-01 2.94198841e-01 2.12079599e-01
      2.94198841e-01 2.94198841e-01 2.94198841e-01 2.94198841e-01
      2.88259089e-01 2.88259089e-01 2.88259089e-01 2.88259089e-01
      2.88259089e-01 2.88259089e-01 2.88259089e-01 2.88259089e-01
      2.88259089e-01 2.88259089e-01 2.88259089e-01 2.88259089e-01</_>
    <_>
      3.44429046e-01 1.06321365e-01 3.44429046e-01 3.44429046e-01
      7.88279697e-02 3.44429046e-01 3.44429046e-01 1.00712270e-01
      3.44429046e-01 3.44429046e-01 1.40878320e-01 3.44429046e-01
      3.16267848e-01 1.60837337e-01 3.16267848e-01 3.16267848e-01
      1.92308202e-01 2.99513638e-01 3.16267848e-01 2.53814876e-01
      3.16267848e-01 3.16267848e-01 2.82277763e-01 3.16267848e-01
      2.03226238e-01 3.11152041e-01 2.74130702e-01 2.06143707e-01
      3.11152041e-01 3.11152041e-01 3.11152041e-01 3.11152041e-01
      3.11152041e-01 2.51838207e-01 3.11152041e-01 3.11152041e-01</_>
    <_>
      3.06424499e-01 2.94345647e-01 3.06424499e-01 3.06424499e-01
      2.67073780e-01 3.06424499e-01 3.06424499e-01 1.66103706e-01
      3.06424499e-01 3.06424499e-01 2.45381430e-01 3.06424499e-01
      2.88895339e-01 2.81153768e-01 2.88895339e-01 2.88895339e-01
      2.88895339e-01 2.88895339e-01 2.88895339e-01 2.88895339e-01
      2.88895339e-01 2.88895339e-01 2.88895339e-01 2.88895339e-01
      2.92767137e-01 2.92767137e-01 2.89931178e-01 2.92767137e-01
      2.92767137e-01 2.92767137e-01 2.92767137e-01 2.92767137e-01
      2.92077780e-01 2.92767137e-01 2.92767137e-01 2.37258628e-01</_>
    <_>
      3.10380429e-01 3.10380429e-01 3.10380429e-01 3.10380429e-01
      2.79926777e-01 3.10380429e-01 3.10380429e-01 1.84354573e-01
      3.10380429e-01 3.10380429e-01 1.32396415e-01 3.10380429e-01
      2.96724588e-01 2.96724588e-01 2.96724588e-01 2.96724588e-01
      2.96724588e-01 2.96724588e-01 2.96724588e-01 1.68921977e-01
      2.96724588e-01 2.96724588e-01 2.96724588e-01 2.96724588e-01
      2.88259089e-01 2.88259089e-01 2.88259089e-01 2.88259089e-01
      2.88259089e-01 2.88259089e-01 2.88259089e-01 2.88259089e-01
      2.88259089e-01 2.88259089e-01 2.88259089e-01 2.88259089e-01</_>
    <_>
      3.07742476e-01 3.07742476e-01 3.07742476e-01 3.07742476e-01
      2.88410395e-01 3.07742476e-01 3.07742476e-01 1.65620282e-01
      3.07742476e-01 3.07742476e-01 1.84297383e-01 3.07742476e-01
      2.97510892e-01 2.88411200e-01 2.97510892e-01 2.97510892e-01
      2.77227432e-01 2.97510892e-01 2.97510892e-01 2.21236244e-01
      2.97510892e-01 2.97510892e-01 2.82743335e-01 2.97510892e-01
      2.88937271e-01 2.88937271e-01 2.88937271e-01 2.88937271e-01
      2.88937271e-01 2.80914754e-01 2.88937271e-01 2.88937271e-01
      2.88937271e-01 2.88937271e-01 2.88937271e-01 2.88707793e-01</_>
    <_>
      3.01371038e-01 3.01371038e-01 3.01371038e-01 3.01371038e-01
      3.01371038e-01 3.01371038e-01 3.01371038e-01 1.97542816e-01
      3.01371038e-01 3.01371038e-01 2.22980708e-01 3.01371038e-01
      2.93126047e-01 2.93126047e-01 2.93126047e-01 2.93126047e-01
      2.93126047e-01 2.93126047e-01 2.93126047e-01 2.27858260e-01
      2.93126047e-01 2.93126047e-01 2.93126047e-01 2.93126047e-01
      2.88259089e-01 2.88259089e-01 2.88259089e-01 2.88259089e-01
      2.88259089e-01 2.88259089e-01 2.88259089e-01 2.88259089e-01
      2.88259089e-01 2.88259089e-01 2.88259089e-01 2.88259089e-01</_>
    <_>
      3.27850550e-01 1.81602299e-01 3.27850550e-01 3.27850550e-01
      1.53864965e-01 3.27850550e-01 3.27850550e-01 1.72904581e-01
      3.27850550e-01 3.27850550e-01 2.24246740e-01 3.27850550e-01
      2.96354145e-01 2.39923462e-01 2.96354145e-01 2.72441328e-01
      2.96354145e-01 2.74284124e-01 2.96354145e-01 2.95657218e-01
      2.96354145e-01 2.96354145e-01 2.96354145e-01 2.96354145e-01
      2.28152886e-01 3.07972193e-01 2.70036578e-01 3.07972193e-01
      3.07972193e-01 3.07972193e-01 2.25231841e-01 3.07972193e-01
      3.07972193e-01 2.49889657e-01 3.07972193e-01 3.07972193e-01</_>
    <_>
      2.93432981e-01 2.53978908e-01 2.93432981e-01 2.93432981e-01
      2.93432981e-01 2.93432981e-01 2.67457306e-01 2.93432981e-01
      2.93432981e-01 2.93432981e-01 2.93432981e-01 2.93432981e-01
      2.96024144e-01 1.81958482e-01 2.96024144e-01 2.96024144e-01
      2.96024144e-01 2.96024144e-01 2.96024144e-01 2.96024144e-01
      2.96024144e-01 2.96024144e-01 2.96024144e-01 2.96024144e-01
      2.89181322e-01 2.89181322e-01 2.89181322e-01 2.89181322e-01
      2.89181322e-01 2.77895719e-01 2.89181322e-01 2.89181322e-01
      2.89181322e-01 2.89181322e-01 2.89181322e-01 2.89181322e-01</_>
    <_>
      2.44318530e-01 2.95224875e-01 3.04800659e-01 3.04800659e-01
      3.04800659e-01 3.04800659e-01 2.50838190e-01 2.09661052e-01
      3.04800659e-01 3.04800659e-01 3.04800659e-01 3.04800659e-01
      2.91760087e-01 2.46416360e-01 2.91760087e-01 2.91760087e-01
      2.91760087e-01 2.91760087e-01 2.91760087e-01 2.91760087e-01
      2.91760087e-01 2.91760087e-01 2.91760087e-01 2.91760087e-01
      2.92236090e-01 2.92236090e-01 2.92236090e-01 2.63744801e-01
      2.92236090e-01 2.92236090e-01 2.92236090e-01 2.92236090e-01
      2.92236090e-01 2.71106988e-01 2.92236090e-01 2.92236090e-01</_>
    <_>
      2.40469337e-01 2.16263399e-01 3.04698795e-01 3.04698795e-01
      3.04698795e-01 3.04698795e-01 2.48804674e-01 2.96184778e-01
      3.04698795e-01 3.04698795e-01 3.04698795e-01 3.04698795e-01
      3.00174326e-01 2.13250071e-01 3.00174326e-01 3.00174326e-01
      2.24674657e-01 3.00174326e-01 3.00174326e-01 3.00174326e-01
      3.00174326e-01 3.00174326e-01 3.00174326e-01 3.00174326e-01
      2.89233387e-01 2.89233387e-01 2.89233387e-01 2.89233387e-01
      2.89233387e-01 2.89233387e-01 2.89233387e-01 2.89233387e-01
      2.89233387e-01 2.77298361e-01 2.89233387e-01 2.89233387e-01</_>
    <_>
      2.34757140e-01 2.14578405e-01 2.99566686e-01 2.99566686e-01
      2.99566686e-01 2.99566686e-01 2.96968311e-01 2.99566686e-01
      2.99566686e-01 2.99566686e-01 2.99566686e-01 2.99566686e-01
      2.99741238e-01 1.88769594e-01 2.99741238e-01 2.99741238e-01
      2.50844032e-01 2.99741238e-01 2.99741238e-01 2.99741238e-01
      2.99741238e-01 2.99741238e-01 2.99741238e-01 2.99741238e-01
      2.88958579e-01 2.88958579e-01 2.88958579e-01 2.88958579e-01
      2.88958579e-01 2.80436873e-01 2.88958579e-01 2.88958579e-01
      2.88958579e-01 2.88958579e-01 2.88958579e-01 2.88958579e-01</_>
    <_>
      2.67506838e-01 2.81591356e-01 2.59986162e-01 2.94130474e-01
      2.94130474e-01 2.94130474e-01 2.94130474e-01 2.94130474e-01
      2.94130474e-01 2.94130474e-01 2.94130474e-01 2.94130474e-01
      2.99239188e-01 1.81937754e-01 2.99239188e-01 2.99239188e-01
      2.61663109e-01 2.99239188e-01 2.99239188e-01 2.99239188e-01
      2.99239188e-01 2.99239188e-01 2.99239188e-01 2.99239188e-01
      2.89516836e-01 2.89516836e-01 2.89516836e-01 2.78060704e-01
      2.89516836e-01 2.85638392e-01 2.89516836e-01 2.89516836e-01
      2.89516836e-01 2.89516836e-01 2.89516836e-01 2.89516836e-01</_>
    <_>
      2.72730917e-01 2.51913369e-01 2.89208531e-01 2.95653313e-01
      2.95653313e-01 2.95653313e-01 2.95653313e-01 2.76178330e-01
      2.95653313e-01 2.95653313e-01 2.95653313e-01 2.95653313e-01
      3.01257521e-01 2.25320578e-01 3.01257521e-01 3.01257521e-01
      1.96620002e-01 3.01257521e-01 3.01257521e-01 3.01257521e-01
      3.01257521e-01 3.01257521e-01 3.01257521e-01 3.01257521e-01
      2.88259089e-01 2.88259089e-01 2.88259089e-01 2.88259089e-01
      2.88259089e-01 2.88259089e-01 2.88259089e-01 2.88259089e-01
      2.88259089e-01 2.88259089e-01 2.88259089e-01 2.88259089e-01</_>
    <_>
      2.88174868e-01 2.90227741e-01 2.67831206e-01 2.90227741e-01
      2.90227741e-01 2.90227741e-01 2.90227741e-01 2.90227741e-01
      2.90227741e-01 2.90227741e-01 2.90227741e-01 2.90227741e-01
      2.96754211e-01 2.69443512e-01 2.96754211e-01 2.96754211e-01
      2.09295198e-01 2.96754211e-01 2.96754211e-01 2.96754211e-01
      2.96754211e-01 2.96754211e-01 2.96754211e-01 2.96754211e-01
      2.91021109e-01 2.55862474e-01 2.91021109e-01 2.91021109e-01
      2.91021109e-01 2.91021109e-01 2.91021109e-01 2.91021109e-01
      2.91021109e-01 2.91021109e-01 2.91021109e-01 2.91021109e-01</_>
    <_>
      3.14011604e-01 3.14011604e-01 3.14011604e-01 3.14011604e-01
      3.14011604e-01 3.14011604e-01 1.76271722e-01 1.87733918e-01
      2.40739539e-01 2.89421469e-01 3.14011604e-01 3.14011604e-01
      2.95024037e-01 2.94438511e-01 2.95024037e-01 2.95024037e-01
      2.81049490e-01 2.95024037e-01 2.49043867e-01 2.70245790e-01
      2.95024037e-01 2.95024037e-01 2.95024037e-01 2.95024037e-01
      2.88259089e-01 2.88259089e-01 2.88259089e-01 2.88259089e-01
      2.88259089e-01 2.88259089e-01 2.88259089e-01 2.88259089e-01
      2.88259089e-01 2.88259089e-01 2.88259089e-01 2.88259089e-01</_>
    <_>
      3.31101149e-01 3.31101149e-01 3.31101149e-01 3.31101149e-01
      3.31101149e-01 3.31101149e-01 1.70345709e-01 1.94745839e-01
      2.04364121e-01 2.31631383e-01 2.58717060e-01 3.31101149e-01
      3.00205916e-01 3.00205916e-01 3.00205916e-01 3.00205916e-01
      3.00205916e-01 3.00205916e-01 2.14833602e-01 2.22734809e-01
      3.00205916e-01 3.00205916e-01 3.00205916e-01 3.00205916e-01
      2.88259089e-01 2.88259089e-01 2.88259089e-01 2.88259089e-01
      2.88259089e-01 2.88259089e-01 2.88259089e-01 2.88259089e-01
      2.88259089e-01 2.88259089e-01 2.88259089e-01 2.88259089e-01</_>
    <_>
      3.07331741e-01 3.07331741e-01 3.07331741e-01 3.07331741e-01
      3.07331741e-01 3.07331741e-01 2.50659943e-01 2.27264285e-01
      1.95542306e-01 2.97641516e-01 3.07331741e-01 3.07331741e-01
      2.91958004e-01 2.91958004e-01 2.91958004e-01 2.91958004e-01
      2.91958004e-01 2.91958004e-01 2.55062968e-01 2.91958004e-01
      2.91958004e-01 2.91958004e-01 2.82189131e-01 2.91958004e-01
      2.88259089e-01 2.88259089e-01 2.88259089e-01 2.88259089e-01
      2.88259089e-01 2.88259089e-01 2.88259089e-01 2.88259089e-01
      2.88259089e-01 2.88259089e-01 2.88259089e-01 2.88259089e-01</_>
    <_>
      3.11342359e-01 2.90119648e-01 3.11342359e-01 3.11342359e-01
      3.11342359e-01 3.11342359e-01 2.27375448e-01 2.18361735e-01
      1.94590926e-01 3.11342359e-01 3.11342359e-01 3.11342359e-01
      2.92076528e-01 2.92076528e-01 2.92076528e-01 2.92076528e-01
      2.92076528e-01 2.92076528e-01 2.42251232e-01 2.92076528e-01
      2.92076528e-01 2.92076528e-01 2.92076528e-01 2.92076528e-01
      2.88259089e-01 2.88259089e-01 2.88259089e-01 2.88259089e-01
      2.88259089e-01 2.88259089e-01 2.88259089e-01 2.88259089e-01
      2.88259089e-01 2.88259089e-01 2.88259089e-01 2.88259089e-01</_>
    <_>
      2.21616939e-01 2.99684733e-01 2.33336762e-01 2.99684733e-01
      2.99684733e-01 2.99684733e-01 2.99684733e-01 2.99684733e-01
      2.91799307e-01 2.99684733e-01 2.99684733e-01 2.99684733e-01
      2.88259089e-01 2.88259089e-01 2.88259089e-01 2.88259089e-01
      2.88259089e-01 2.88259089e-01 2.88259089e-01 2.88259089e-01
      2.88259089e-01 2.88259089e-01 2.88259089e-01 2.88259089e-01
      2.90782511e-01 2.90782511e-01 2.90782511e-01 2.90782511e-01
      2.90782511e-01 2.58834094e-01 2.90782511e-01 2.90782511e-01
      2.90782511e-01 2.90782511e-01 2.90782511e-01 2.90782511e-01</_>
    <_>
      2.28631988e-01 2.07744330e-01 1.97937757e-01 3.13656658e-01
      3.13656658e-01 3.13656658e-01 3.13656658e-01 3.13656658e-01
      2.74248809e-01 3.13656658e-01 3.13656658e-01 3.13656658e-01
      2.88259089e-01 2.88259089e-01 2.88259089e-01 2.88259089e-01
      2.88259089e-01 2.88259089e-01 2.88259089e-01 2.88259089e-01
      2.88259089e-01 2.88259089e-01 2.88259089e-01 2.88259089e-01
      2.90421814e-01 2.90421814e-01 2.90421814e-01 2.90421814e-01
      2.90421814e-01 2.63257921e-01 2.90421814e-01 2.90421814e-01
      2.90421814e-01 2.90421814e-01 2.90421814e-01 2.90421814e-01</_>
    <_>
      1.66431814e-01 1.95462480e-01 1.53494731e-01 3.22555959e-01
      3.22555959e-01 3.22555959e-01 3.22555959e-01 3.22555959e-01
      2.73810983e-01 3.22555959e-01 3.22555959e-01 3.22555959e-01
      2.88259089e-01 2.88259089e-01 2.88259089e-01 2.88259089e-01
      2.88259089e-01 2.88259089e-01 2.88259089e-01 2.88259089e-01
      2.88259089e-01 2.88259089e-01 2.88259089e-01 2.88259089e-01
      2.88259089e-01 2.88259089e-01 2.88259089e-01 2.88259089e-01
      2.88259089e-01 2.88259089e-01 2.88259089e-01 2.88259089e-01
      2.88259089e-01 2.88259089e-01 2.88259089e-01 2.88259089e-01</_>
    <_>
      2.91777164e-01 2.46193767e-01 2.91777164e-01 2.91777164e-01
      2.91777164e-01 2.91777164e-01 2.91777164e-01 2.91777164e-01
      2.91777164e-01 2.91777164e-01 2.91777164e-01 2.91777164e-01
      2.97433019e-01 1.65341347e-01 2.97433019e-01 2.97433019e-01
      2.91592330e-01 2.97433019e-01 2.97433019e-01 2.97433019e-01
      2.97433019e-01 2.97433019e-01 2.97433019e-01 2.97433019e-01
      2.88259089e-01 2.88259089e-01 2.88259089e-01 2.88259089e-01
      2.88259089e-01 2.88259089e-01 2.88259089e-01 2.88259089e-01
      2.88259089e-01 2.88259089e-01 2.88259089e-01 2.88259089e-01</_>
    <_>
      2.95920789e-01 2.95920789e-01 2.95920789e-01 2.95920789e-01
      2.95920789e-01 2.95920789e-01 2.95920789e-01 1.83800876e-01
      2.95920789e-01 2.95920789e-01 2.95920789e-01 2.95920789e-01
      2.92930216e-01 2.92930216e-01 2.92930216e-01 2.92930216e-01
      2.92930216e-01 2.92930216e-01 2.57280469e-01 2.69812167e-01
      2.92930216e-01 2.92930216e-01 2.92930216e-01 2.92930216e-01
      2.88259089e-01 2.88259089e-01 2.88259089e-01 2.88259089e-01
      2.88259089e-01 2.88259089e-01 2.88259089e-01 2.88259089e-01
      2.88259089e-01 2.88259089e-01 2.88259089e-01 2.88259089e-01</_>
    <_>
      3.02549511e-01 3.02549511e-01 3.02549511e-01 3.02549511e-01
      3.02549511e-01 3.02549511e-01 2.45580748e-01 1.71823531e-01
      2.96741247e-01 3.02549511e-01 2.94615835e-01 3.02549511e-01
      2.97700465e-01 2.97700465e-01 2.97700465e-01 2.97700465e-01
      2.97700465e-01 2.97700465e-01 2.40247816e-01 2.30326921e-01
      2.97700465e-01 2.97700465e-01 2.97700465e-01 2.97700465e-01
      2.90928155e-01 2.90928155e-01 2.90928155e-01 2.82697946e-01
      2.90928155e-01 2.66050071e-01 2.90928155e-01 2.90928155e-01
      2.90928155e-01 2.90928155e-01 2.90928155e-01 2.90928155e-01</_>
    <_>
      3.14508080e-01 3.14508080e-01 3.14508080e-01 3.14508080e-01
      3.14508080e-01 3.14508080e-01 2.24488989e-01 1.97676942e-01
      2.38550290e-01 2.72306710e-01 2.89691985e-01 3.14508080e-01
      3.01143408e-01 3.01143408e-01 3.01143408e-01 3.01143408e-01
      3.01143408e-01 3.01143408e-01 2.30603993e-01 2.44681180e-01
      3.01143408e-01 3.01143408e-01 2.60302901e-01 3.01143408e-01
      2.88259089e-01 2.88259089e-01 2.88259089e-01 2.88259089e-01
      2.88259089e-01 2.88259089e-01 2.88259089e-01 2.88259089e-01
      2.88259089e-01 2.88259089e-01 2.88259089e-01 2.88259089e-01</_>
    <_>
      3.29676777e-01 3.17267030e-01 3.29676777e-01 3.29676777e-01
      3.29676777e-01 3.29676777e-01 1.70711413e-01 1.50821924e-01
      1.68201432e-01 2.69452810e-01 3.01895380e-01 3.29676777e-01
      3.00211459e-01 3.00211459e-01 3.00211459e-01 3.00211459e-01
      3.00211459e-01 3.00211459e-01 1.85814917e-01 2.52840489e-01
      3.00211459e-01 3.00211459e-01 2.95639008e-01 3.00211459e-01
      2.88678259e-01 2.88678259e-01 2.88678259e-01 2.88678259e-01
      2.88678259e-01 2.83600062e-01 2.88678259e-01 2.88678259e-01
      2.88678259e-01 2.88678259e-01 2.88678259e-01 2.88678259e-01</_>
    <_>
      3.34440261e-01 3.34440261e-01 3.34440261e-01 3.34440261e-01
      3.34440261e-01 3.34440261e-01 1.13610357e-01 1.26806080e-01
      1.72885463e-01 2.55269736e-01 2.99444765e-01 3.34440261e-01
      2.99915075e-01 2.99915075e-01 2.99915075e-01 2.99915075e-01
      2.99915075e-01 2.99915075e-01 2.04074755e-01 2.36360103e-01
      2.99915075e-01 2.99915075e-01 2.99915075e-01 2.99915075e-01
      2.88259089e-01 2.88259089e-01 2.88259089e-01 2.88259089e-01
      2.88259089e-01 2.88259089e-01 2.88259089e-01 2.88259089e-01
      2.88259089e-01 2.88259089e-01 2.88259089e-01 2.88259089e-01</_>
    <_>
      3.16996962e-01 3.16996962e-01 3.16996962e-01 3.16996962e-01
      3.16996962e-01 3.16996962e-01 1.86765134e-01 1.56929299e-01
      2.24353701e-01 2.88259208e-01 3.16996962e-01 3.16996962e-01
      2.98282146e-01 2.98282146e-01 2.98282146e-01 2.98282146e-01
      2.98282146e-01 2.98282146e-01 2.12944284e-01 2.48901114e-01
      2.98282146e-01 2.98282146e-01 2.98282146e-01 2.98282146e-01
      2.88259089e-01 2.88259089e-01 2.88259089e-01 2.88259089e-01
      2.88259089e-01 2.88259089e-01 2.88259089e-01 2.88259089e-01
      2.88259089e-01 2.88259089e-01 2.88259089e-01 2.88259089e-01</_>
    <_>
      3.07298422e-01 3.07298422e-01 3.07298422e-01 3.07298422e-01
      3.07298422e-01 3.07298422e-01 1.86649635e-01 2.05982491e-01
      2.76470780e-01 2.96256214e-01 3.07298422e-01 3.07298422e-01
      3.01784396e-01 2.28275925e-01 3.01784396e-01 3.01784396e-01
      2.73263097e-01 3.01784396e-01 2.46468961e-01 2.84366548e-01
      3.01784396e-01 3.01784396e-01 3.01784396e-01 3.01784396e-01
      2.88259089e-01 2.88259089e-01 2.88259089e-01 2.88259089e-01
      2.88259089e-01 2.88259089e-01 2.88259089e-01 2.88259089e-01
      2.88259089e-01 2.88259089e-01 2.88259089e-01 2.88259089e-01</_>
    <_>
      2.93609709e-01 2.93609709e-01 2.93609709e-01 2.93609709e-01
      2.93609709e-01 2.93609709e-01 2.70655572e-01 2.48485148e-01
      2.93609709e-01 2.93609709e-01 2.93609709e-01 2.93609709e-01
      3.01959246e-01 1.77443787e-01 3.01959246e-01 3.01959246e-01
      3.01959246e-01 3.01959246e-01 3.01959246e-01 2.31738105e-01
      3.01959246e-01 3.01959246e-01 3.01959246e-01 3.01959246e-01
      2.88259089e-01 2.88259089e-01 2.88259089e-01 2.88259089e-01
      2.88259089e-01 2.88259089e-01 2.88259089e-01 2.88259089e-01
      2.88259089e-01 2.88259089e-01 2.88259089e-01 2.88259089e-01</_>
    <_>
      2.92543113e-01 2.82211989e-01 2.84700900e-01 2.92543113e-01
      2.92543113e-01 2.92543113e-01 2.92543113e-01 2.57187366e-01
      2.92543113e-01 2.92543113e-01 2.92543113e-01 2.92543113e-01
      2.98372477e-01 1.56452537e-01 2.98372477e-01 2.98372477e-01
      2.91480869e-01 2.98372477e-01 2.98372477e-01 2.93845087e-01
      2.98372477e-01 2.98372477e-01 2.98372477e-01 2.98372477e-01
      2.88259089e-01 2.88259089e-01 2.88259089e-01 2.88259089e-01
      2.88259089e-01 2.88259089e-01 2.88259089e-01 2.88259089e-01
      2.88259089e-01 2.88259089e-01 2.88259089e-01 2.88259089e-01</_>
    <_>
      2.51383573e-01 2.28257656e-01 2.36521170e-01 3.02900046e-01
      3.02900046e-01 3.02900046e-01 3.02900046e-01 3.02900046e-01
      3.02900046e-01 3.02900046e-01 3.02900046e-01 3.02900046e-01
      2.98027009e-01 1.43002689e-01 2.80459344e-01 3.05701554e-01
      2.47770831e-01 3.05701554e-01 3.05701554e-01 3.05701554e-01
      3.05701554e-01 3.05701554e-01 3.05701554e-01 3.05701554e-01
      2.88259089e-01 2.88259089e-01 2.88259089e-01 2.88259089e-01
      2.88259089e-01 2.88259089e-01 2.88259089e-01 2.88259089e-01
      2.88259089e-01 2.88259089e-01 2.88259089e-01 2.88259089e-01</_>
    <_>
      2.47044101e-01 1.82336122e-01 2.58044034e-01 3.04793239e-01
      3.04793239e-01 3.04793239e-01 3.04793239e-01 3.04793239e-01
      3.04793239e-01 3.04793239e-01 3.04793239e-01 3.04793239e-01
      3.01466852e-01 1.65270388e-01 2.71376967e-01 3.01466852e-01
      2.79441357e-01 3.01466852e-01 3.01466852e-01 3.01466852e-01
      3.01466852e-01 3.01466852e-01 3.01466852e-01 3.01466852e-01
      2.88259089e-01 2.88259089e-01 2.88259089e-01 2.88259089e-01
      2.88259089e-01 2.88259089e-01 2.88259089e-01 2.88259089e-01
      2.88259089e-01 2.88259089e-01 2.88259089e-01 2.88259089e-01</_>
    <_>
      2.48835728e-01 2.06484303e-01 2.74629474e-01 3.01866680e-01
      2.96680510e-01 3.01866680e-01 3.01866680e-01 3.01866680e-01
      3.01866680e-01 3.01866680e-01 3.01866680e-01 3.01866680e-01
      2.82233268e-01 1.62562951e-01 2.76589245e-01 3.00815582e-01
      3.00815582e-01 3.00815582e-01 3.00815582e-01 3.00815582e-01
      3.00815582e-01 3.00815582e-01 3.00815582e-01 3.00815582e-01
      2.88259089e-01 2.88259089e-01 2.88259089e-01 2.88259089e-01
      2.88259089e-01 2.88259089e-01 2.88259089e-01 2.88259089e-01
      2.88259089e-01 2.88259089e-01 2.88259089e-01 2.88259089e-01</_>
    <_>
      2.13865921e-01 1.85716525e-01 3.10810924e-01 3.10810924e-01
      2.96029270e-01 3.10810924e-01 3.10810924e-01 2.37074241e-01
      3.10810924e-01 3.10810924e-01 3.10810924e-01 3.10810924e-01
      2.99691767e-01 1.69580206e-01 2.72466898e-01 2.99691767e-01
      2.92699933e-01 2.99691767e-01 2.99691767e-01 2.99691767e-01
      2.99691767e-01 2.99691767e-01 2.99691767e-01 2.99691767e-01
      2.88259089e-01 2.88259089e-01 2.88259089e-01 2.88259089e-01
      2.88259089e-01 2.88259089e-01 2.88259089e-01 2.88259089e-01
      2.88259089e-01 2.88259089e-01 2.88259089e-01 2.88259089e-01</_>
    <_>
      2.49458879e-01 2.16242447e-01 2.97998637e-01 2.97998637e-01
      2.97998637e-01 2.97998637e-01 2.97998637e-01 2.97998637e-01
      2.97998637e-01 2.97998637e-01 2.97998637e-01 2.97998637e-01
      2.74456680e-01 1.59184113e-01 2.39625305e-01 3.09933901e-01
      2.74280071e-01 3.01950216e-01 3.09933901e-01 3.09933901e-01
      3.09933901e-01 3.09933901e-01 3.09933901e-01 3.09933901e-01
      2.88259089e-01 2.88259089e-01 2.88259089e-01 2.88259089e-01
      2.88259089e-01 2.88259089e-01 2.88259089e-01 2.88259089e-01
      2.88259089e-01 2.88259089e-01 2.88259089e-01 2.88259089e-01</_>
    <_>
      2.92986602e-01 2.34889090e-01 3.03949028e-01 3.03949028e-01
      3.03949028e-01 3.03949028e-01 2.62218118e-01 2.19340727e-01
      3.03949028e-01 3.03949028e-01 3.03949028e-01 3.03949028e-01
      3.01009387e-01 1.99255854e-01 2.57476956e-01 3.01009387e-01
      2.74836510e-01 3.01009387e-01 3.01009387e-01 3.01009387e-01
      3.01009387e-01 3.01009387e-01 3.01009387e-01 3.01009387e-01
      2.92154312e-01 2.92154312e-01 2.92154312e-01 2.82171279e-01
      2.92154312e-01 2.92154312e-01 2.92154312e-01 2.92154312e-01
      2.92154312e-01 2.52821207e-01 2.92154312e-01 2.92154312e-01</_>
    <_>
      2.31997758e-01 2.24378720e-01 3.33712697e-01 3.33712697e-01
      3.33712697e-01 3.33712697e-01 1.67376876e-01 1.80465549e-01
      2.28833571e-01 3.33712697e-01 3.33712697e-01 3.33712697e-01
      2.91697115e-01 2.67565668e-01 2.91697115e-01 2.91697115e-01
      2.73169816e-01 2.91697115e-01 2.91697115e-01 2.91697115e-01
      2.91697115e-01 2.91697115e-01 2.91697115e-01 2.91697115e-01
      2.88259089e-01 2.88259089e-01 2.88259089e-01 2.88259089e-01
      2.88259089e-01 2.88259089e-01 2.88259089e-01 2.88259089e-01
      2.88259089e-01 2.88259089e-01 2.88259089e-01 2.88259089e-01</_>
    <_>
      2.26901561e-01 2.56474465e-01 3.17541093e-01 3.17541093e-01
      3.17541093e-01 3.17541093e-01 2.30619073e-01 2.06981510e-01
      2.78766572e-01 3.17541093e-01 3.17541093e-01 3.17541093e-01
      2.88259089e-01 2.88259089e-01 2.88259089e-01 2.88259089e-01
      2.88259089e-01 2.88259089e-01 2.88259089e-01 2.88259089e-01
      2.88259089e-01 2.88259089e-01 2.88259089e-01 2.88259089e-01
      2.93525815e-01 2.93525815e-01 2.93525815e-01 2.71368474e-01
      2.93525815e-01 2.93525815e-01 2.93525815e-01 2.93525815e-01
      2.93525815e-01 2.48700857e-01 2.93525815e-01 2.93525815e-01</_>
    <_>
      1.92767724e-01 3.12812001e-01 3.12812001e-01 3.12812001e-01
      3.12812001e-01 3.12812001e-01 1.97872132e-01 1.99748263e-01
      3.12812001e-01 3.12812001e-01 3.12812001e-01 3.12812001e-01
      2.88598388e-01 2.84493804e-01 2.88598388e-01 2.88598388e-01
      2.88598388e-01 2.88598388e-01 2.88598388e-01 2.88598388e-01
      2.88598388e-01 2.88598388e-01 2.88598388e-01 2.88598388e-01
      2.90610641e-01 2.90610641e-01 2.90610641e-01 2.74650067e-01
      2.90610641e-01 2.90610641e-01 2.90610641e-01 2.90610641e-01
      2.90610641e-01 2.77701199e-01 2.90610641e-01 2.90610641e-01</_>
    <_>
      1.96825355e-01 3.08287472e-01 3.08287472e-01 3.08287472e-01
      3.08287472e-01 3.08287472e-01 2.01528102e-01 2.49389589e-01
      3.08287472e-01 3.08287472e-01 3.08287472e-01 3.08287472e-01
      2.88259089e-01 2.88259089e-01 2.88259089e-01 2.88259089e-01
      2.88259089e-01 2.88259089e-01 2.88259089e-01 2.88259089e-01
      2.88259089e-01 2.88259089e-01 2.88259089e-01 2.88259089e-01
      2.88674444e-01 2.88674444e-01 2.88674444e-01 2.88674444e-01
      2.88674444e-01 2.88674444e-01 2.88674444e-01 2.88674444e-01
      2.88674444e-01 2.83642769e-01 2.88674444e-01 2.88674444e-01</_>
    <_>
      1.43152341e-01 3.14591140e-01 3.14591140e-01 3.14591140e-01
      3.14591140e-01 3.14591140e-01 2.07902208e-01 2.28088260e-01
      2.98957884e-01 3.14591140e-01 3.14591140e-01 3.14591140e-01
      2.89911658e-01 2.69381702e-01 2.89911658e-01 2.89911658e-01
      2.89911658e-01 2.89911658e-01 2.89911658e-01 2.89911658e-01
      2.89911658e-01 2.89911658e-01 2.89911658e-01 2.89911658e-01
      2.89353818e-01 2.89353818e-01 2.89353818e-01 2.75910497e-01
      2.89353818e-01 2.89353818e-01 2.89353818e-01 2.89353818e-01
      2.89353818e-01 2.89353818e-01 2.89353818e-01 2.89353818e-01</_>
    <_>
      2.01463670e-01 3.00306767e-01 3.00306767e-01 3.00306767e-01
      3.00306767e-01 3.00306767e-01 2.58050889e-01 2.79578239e-01
      3.00306767e-01 3.00306767e-01 3.00306767e-01 3.00306767e-01
      2.89441854e-01 2.74891168e-01 2.89441854e-01 2.89441854e-01
      2.89441854e-01 2.89441854e-01 2.89441854e-01 2.89441854e-01
      2.89441854e-01 2.89441854e-01 2.89441854e-01 2.89441854e-01
      2.89033055e-01 2.89033055e-01 2.89033055e-01 2.86828250e-01
      2.89033055e-01 2.89033055e-01 2.89033055e-01 2.89033055e-01
      2.89033055e-01 2.81851351e-01 2.89033055e-01 2.89033055e-01</_>
    <_>
      2.28615850e-01 2.97383785e-01 2.97383785e-01 2.97383785e-01
      2.97383785e-01 2.97383785e-01 2.45747849e-01 2.97383785e-01
      2.97383785e-01 2.97383785e-01 2.97383785e-01 2.97383785e-01
      2.88259089e-01 2.88259089e-01 2.88259089e-01 2.88259089e-01
      2.88259089e-01 2.88259089e-01 2.88259089e-01 2.88259089e-01
      2.88259089e-01 2.88259089e-01 2.88259089e-01 2.88259089e-01
      2.88259089e-01 2.88259089e-01 2.88259089e-01 2.88259089e-01
      2.88259089e-01 2.88259089e-01 2.88259089e-01 2.88259089e-01
      2.88259089e-01 2.88259089e-01 2.88259089e-01 2.88259089e-01</_>
    <_>
      2.93525279e-01 2.82888770e-01 2.93525279e-01 2.93525279e-01
      2.35520795e-01 2.93525279e-01 2.93525279e-01 2.93525279e-01
      2.93525279e-01 2.93525279e-01 2.93525279e-01 2.93525279e-01
      3.01177263e-01 1.61716729e-01 2.52509058e-01 3.01177263e-01
      3.01177263e-01 3.01177263e-01 3.01177263e-01 3.01177263e-01
      3.01177263e-01 3.01177263e-01 3.01177263e-01 3.01177263e-01
      2.91162461e-01 2.91162461e-01 2.91162461e-01 2.91162461e-01
      2.91162461e-01 2.91162461e-01 2.91162461e-01 2.91162461e-01
      2.91162461e-01 2.70462304e-01 2.91162461e-01 2.76015967e-01</_>
    <_>
      2.92620122e-01 2.92620122e-01 2.92620122e-01 2.92620122e-01
      2.92620122e-01 2.92620122e-01 2.34912932e-01 2.92620122e-01
      2.92620122e-01 2.92620122e-01 2.92620122e-01 2.92620122e-01
      2.97307223e-01 2.11522460e-01 2.61479676e-01 2.97307223e-01
      2.97307223e-01 2.97307223e-01 2.97307223e-01 2.97307223e-01
      2.97307223e-01 2.97307223e-01 2.97307223e-01 2.97307223e-01
      2.88259089e-01 2.88259089e-01 2.88259089e-01 2.88259089e-01
      2.88259089e-01 2.88259089e-01 2.88259089e-01 2.88259089e-01
      2.88259089e-01 2.88259089e-01 2.88259089e-01 2.88259089e-01</_>
    <_>
      2.25181758e-01 1.99800417e-01 2.80798703e-01 3.03869814e-01
      3.03869814e-01 3.03869814e-01 2.97982931e-01 3.03869814e-01
      3.03869814e-01 3.03869814e-01 3.03869814e-01 3.03869814e-01
      3.00719470e-01 1.83862895e-01 2.42626607e-01 3.00719470e-01
      3.00719470e-01 3.00719470e-01 3.00719470e-01 3.00719470e-01
      3.00719470e-01 3.00719470e-01 3.00719470e-01 3.00719470e-01
      2.88259089e-01 2.88259089e-01 2.88259089e-01 2.88259089e-01
      2.88259089e-01 2.88259089e-01 2.88259089e-01 2.88259089e-01
      2.88259089e-01 2.88259089e-01 2.88259089e-01 2.88259089e-01</_>
    <_>
      2.11008951e-01 1.86146840e-01 2.39431873e-01 3.10297638e-01
      3.10297638e-01 3.10297638e-01 3.00199002e-01 3.10297638e-01
      3.10297638e-01 3.10297638e-01 3.10297638e-01 3.10297638e-01
      2.96718776e-01 1.85200199e-01 2.86907285e-01 2.96718776e-01
      2.96718776e-01 2.96718776e-01 2.96718776e-01 2.96718776e-01
      2.96718776e-01 2.96718776e-01 2.96718776e-01 2.96718776e-01
      2.89305001e-01 2.89305001e-01 2.89305001e-01 2.89305001e-01
      2.89305001e-01 2.89305001e-01 2.89305001e-01 2.89305001e-01
      2.89305001e-01 2.89305001e-01 2.89305001e-01 2.76473880e-01</_>
    <_>
      1.90634981e-01 1.91644579e-01 2.34084398e-01 3.10739309e-01
      3.10739309e-01 3.10739309e-01 3.10739309e-01 3.10739309e-01
      3.10739309e-01 3.10739309e-01 3.10739309e-01 3.10739309e-01
      2.95587540e-01 1.98108807e-01 2.89964378e-01 2.95587540e-01
      2.95587540e-01 2.95587540e-01 2.95587540e-01 2.95587540e-01
      2.95587540e-01 2.95587540e-01 2.95587540e-01 2.95587540e-01
      2.88259089e-01 2.88259089e-01 2.88259089e-01 2.88259089e-01
      2.88259089e-01 2.88259089e-01 2.88259089e-01 2.88259089e-01
      2.88259089e-01 2.88259089e-01 2.88259089e-01 2.88259089e-01</_>
    <_>
      1.76655650e-01 1.71783626e-01 2.02674016e-01 3.15357894e-01
      3.15357894e-01 3.15357894e-01 3.15357894e-01 3.15357894e-01
      3.15357894e-01 3.15357894e-01 3.15357894e-01 3.15357894e-01
      2.97497123e-01 1.79378554e-01 2.82498240e-01 2.97497123e-01
      2.97497123e-01 2.97497123e-01 2.97497123e-01 2.97497123e-01
      2.97497123e-01 2.97497123e-01 2.97497123e-01 2.97497123e-01
      2.88259089e-01 2.88259089e-01 2.88259089e-01 2.88259089e-01
      2.88259089e-01 2.88259089e-01 2.88259089e-01 2.88259089e-01
      2.88259089e-01 2.88259089e-01 2.88259089e-01 2.88259089e-01</_>
    <_>
      2.93686956e-01 2.81856596e-01 2.93686956e-01 2.93686956e-01
      2.34737977e-01 2.93686956e-01 2.93686956e-01 2.93686956e-01
      2.93686956e-01 2.93686956e-01 2.93686956e-01 2.93686956e-01
      2.79333800e-01 1.52825043e-01 1.99752018e-01 3.08335185e-01
      3.08335185e-01 3.08335185e-01 3.08335185e-01 3.08335185e-01
      3.08335185e-01 3.08335185e-01 3.08335185e-01 3.08335185e-01
      2.88259089e-01 2.88259089e-01 2.88259089e-01 2.88259089e-01
      2.88259089e-01 2.88259089e-01 2.88259089e-01 2.88259089e-01
      2.88259089e-01 2.88259089e-01 2.88259089e-01 2.88259089e-01</_>
    <_>
      1.69344991e-01 1.55868888e-01 1.92575082e-01 3.17414969e-01
      3.17414969e-01 3.17414969e-01 3.17414969e-01 3.17414969e-01
      3.17414969e-01 3.17414969e-01 3.17414969e-01 3.17414969e-01
      2.97701627e-01 1.79560259e-01 2.80215472e-01 2.97701627e-01
      2.97701627e-01 2.97701627e-01 2.97701627e-01 2.97701627e-01
      2.97701627e-01 2.97701627e-01 2.97701627e-01 2.97701627e-01
      2.88259089e-01 2.88259089e-01 2.88259089e-01 2.88259089e-01
      2.88259089e-01 2.88259089e-01 2.88259089e-01 2.88259089e-01
      2.88259089e-01 2.88259089e-01 2.88259089e-01 2.88259089e-01</_>
    <_>
      1.43409863e-01 1.62030429e-01 2.09807321e-01 3.20735484e-01
      2.88072705e-01 3.20735484e-01 3.20735484e-01 3.20735484e-01
      3.20735484e-01 3.20735484e-01 3.20735484e-01 3.20735484e-01
      2.88099110e-01 1.46154121e-01 2.69146919e-01 3.01879525e-01
      3.01879525e-01 3.01879525e-01 3.01879525e-01 3.01879525e-01
      3.01879525e-01 3.01879525e-01 3.01879525e-01 3.01879525e-01
      2.88259089e-01 2.88259089e-01 2.88259089e-01 2.88259089e-01
      2.88259089e-01 2.88259089e-01 2.88259089e-01 2.88259089e-01
      2.88259089e-01 2.88259089e-01 2.88259089e-01 2.88259089e-01</_>
    <_>
      1.52294099e-01 1.76764578e-01 2.06760928e-01 3.19408178e-01
      2.88871169e-01 3.19408178e-01 3.19408178e-01 3.19408178e-01
      3.19408178e-01 3.19408178e-01 3.19408178e-01 3.19408178e-01
      2.93756247e-01 1.54679462e-01 2.62435406e-01 3.01458806e-01
      3.01458806e-01 3.01458806e-01 3.01458806e-01 3.01458806e-01
      3.01458806e-01 3.01458806e-01 3.01458806e-01 3.01458806e-01
      2.88259089e-01 2.88259089e-01 2.88259089e-01 2.88259089e-01
      2.88259089e-01 2.88259089e-01 2.88259089e-01 2.88259089e-01
      2.88259089e-01 2.88259089e-01 2.88259089e-01 2.88259089e-01</_>
    <_>
      2.96515644e-01 2.50650078e-01 2.96515644e-01 2.96515644e-01
      2.34513015e-01 2.96515644e-01 2.96515644e-01 2.96515644e-01
      2.96515644e-01 2.96515644e-01 2.96515644e-01 2.96515644e-01
      2.91864276e-01 1.52960435e-01 2.42762297e-01 3.03580731e-01
      3.03580731e-01 3.03580731e-01 3.03580731e-01 3.03580731e-01
      3.03580731e-01 3.03580731e-01 3.03580731e-01 3.03580731e-01
      2.88259089e-01 2.88259089e-01 2.88259089e-01 2.88259089e-01
      2.88259089e-01 2.88259089e-01 2.88259089e-01 2.88259089e-01
      2.88259089e-01 2.88259089e-01 2.88259089e-01 2.88259089e-01</_>
    <_>
      2.95317382e-01 2.95317382e-01 2.12970853e-01 2.95317382e-01
      2.95317382e-01 2.82079756e-01 2.95317382e-01 2.95317382e-01
      2.95317382e-01 2.95317382e-01 2.95317382e-01 2.95317382e-01
      2.90815115e-01 2.90815115e-01 2.90815115e-01 2.58430213e-01
      2.90815115e-01 2.90815115e-01 2.90815115e-01 2.90815115e-01
      2.90815115e-01 2.90815115e-01 2.90815115e-01 2.90815115e-01
      2.65807956e-01 2.92842925e-01 2.92842925e-01 2.62393206e-01
      2.92842925e-01 2.92842925e-01 2.92842925e-01 2.92842925e-01
      2.92842925e-01 2.92842925e-01 2.92842925e-01 2.92842925e-01</_>
    <_>
      3.02989930e-01 1.44934267e-01 3.02989930e-01 3.02989930e-01
      2.40702137e-01 3.02989930e-01 3.02989930e-01 3.02989930e-01
      3.02989930e-01 3.02989930e-01 3.02989930e-01 3.02989930e-01
      2.88259089e-01 2.88259089e-01 2.88259089e-01 2.88259089e-01
      2.88259089e-01 2.88259089e-01 2.88259089e-01 2.88259089e-01
      2.88259089e-01 2.88259089e-01 2.88259089e-01 2.88259089e-01
      2.88259089e-01 2.88259089e-01 2.88259089e-01 2.88259089e-01
      2.88259089e-01 2.88259089e-01 2.88259089e-01 2.88259089e-01
      2.88259089e-01 2.88259089e-01 2.88259089e-01 2.88259089e-01</_>
    <_>
      3.02594066e-01 1.45751327e-01 3.02594066e-01 3.02594066e-01
      2.45155364e-01 3.02594066e-01 3.02594066e-01 3.02594066e-01
      3.02594066e-01 3.02594066e-01 3.02594066e-01 3.02594066e-01
      2.88259089e-01 2.88259089e-01 2.88259089e-01 2.88259089e-01
      2.88259089e-01 2.88259089e-01 2.88259089e-01 2.88259089e-01
      2.88259089e-01 2.88259089e-01 2.88259089e-01 2.88259089e-01
      2.88259089e-01 2.88259089e-01 2.88259089e-01 2.88259089e-01
      2.88259089e-01 2.88259089e-01 2.88259089e-01 2.88259089e-01
      2.88259089e-01 2.88259089e-01 2.88259089e-01 2.88259089e-01</_>
    <_>
      2.65051126e-01 1.52851805e-01 2.73004711e-01 3.13731700e-01
      2.42247060e-01 2.84677386e-01 3.13731700e-01 3.13731700e-01
      3.13731700e-01 3.13731700e-01 3.13731700e-01 3.13731700e-01
      2.88259089e-01 2.88259089e-01 2.88259089e-01 2.88259089e-01
      2.88259089e-01 2.88259089e-01 2.88259089e-01 2.88259089e-01
      2.88259089e-01 2.88259089e-01 2.88259089e-01 2.88259089e-01
      2.88259089e-01 2.88259089e-01 2.88259089e-01 2.88259089e-01
      2.88259089e-01 2.88259089e-01 2.88259089e-01 2.88259089e-01
      2.88259089e-01 2.88259089e-01 2.88259089e-01 2.88259089e-01</_>
    <_>
      2.97217399e-01 1.53635368e-01 2.81702697e-01 3.08636576e-01
      2.52290696e-01 2.74173766e-01 3.08636576e-01 3.08636576e-01
      3.08636576e-01 3.08636576e-01 3.08636576e-01 3.08636576e-01
      2.88259089e-01 2.88259089e-01 2.88259089e-01 2.88259089e-01
      2.88259089e-01 2.88259089e-01 2.88259089e-01 2.88259089e-01
      2.88259089e-01 2.88259089e-01 2.88259089e-01 2.88259089e-01
      2.88259089e-01 2.88259089e-01 2.88259089e-01 2.88259089e-01
      2.88259089e-01 2.88259089e-01 2.88259089e-01 2.88259089e-01
      2.88259089e-01 2.88259089e-01 2.88259089e-01 2.88259089e-01</_>
    <_>
      3.04619312e-01 1.47911504e-01 3.04619312e-01 3.04619312e-01
      2.17138425e-01 3.04619312e-01 3.04619312e-01 3.04619312e-01
      3.04619312e-01 3.04619312e-01 3.04619312e-01 3.04619312e-01
      2.88259089e-01 2.88259089e-01 2.88259089e-01 2.88259089e-01
      2.88259089e-01 2.88259089e-01 2.88259089e-01 2.88259089e-01
      2.88259089e-01 2.88259089e-01 2.88259089e-01 2.88259089e-01
      2.89263844e-01 2.76947856e-01 2.89263844e-01 2.89263844e-01
      2.89263844e-01 2.89263844e-01 2.89263844e-01 2.89263844e-01
      2.89263844e-01 2.89263844e-01 2.89263844e-01 2.89263844e-01</_>
    <_>
      2.88259089e-01 2.88259089e-01 2.88259089e-01 2.88259089e-01
      2.88259089e-01 2.88259089e-01 2.88259089e-01 2.88259089e-01
      2.88259089e-01 2.88259089e-01 2.88259089e-01 2.88259089e-01
      2.93335825e-01 2.93335825e-01 2.93335825e-01 2.93335825e-01
      2.32196495e-01 2.93335825e-01 2.93335825e-01 2.93335825e-01
      2.93335825e-01 2.93335825e-01 2.87566692e-01 2.93335825e-01
      2.95540005e-01 2.38748372e-01 2.95540005e-01 2.95540005e-01
      2.58083612e-01 2.95540005e-01 2.95540005e-01 2.95540005e-01
      2.95540005e-01 2.95540005e-01 2.95540005e-01 2.95540005e-01</_>
    <_>
      2.88259089e-01 2.88259089e-01 2.88259089e-01 2.88259089e-01
      2.88259089e-01 2.88259089e-01 2.88259089e-01 2.88259089e-01
      2.88259089e-01 2.88259089e-01 2.88259089e-01 2.88259089e-01
      2.94341385e-01 2.94341385e-01 2.94341385e-01 2.94341385e-01
      2.16621906e-01 2.89422154e-01 2.94341385e-01 2.94341385e-01
      2.94341385e-01 2.94341385e-01 2.94341385e-01 2.94341385e-01
      2.97655314e-01 2.35359192e-01 2.97655314e-01 2.97655314e-01
      2.35891864e-01 2.97655314e-01 2.97655314e-01 2.97655314e-01
      2.97655314e-01 2.97655314e-01 2.97655314e-01 2.97655314e-01</_>
    <_>
      2.88259089e-01 2.88259089e-01 2.88259089e-01 2.88259089e-01
      2.88259089e-01 2.88259089e-01 2.88259089e-01 2.88259089e-01
      2.88259089e-01 2.88259089e-01 2.88259089e-01 2.88259089e-01
      2.97498435e-01 2.97498435e-01 2.97498435e-01 2.97247469e-01
      2.28863537e-01 2.44427294e-01 2.97498435e-01 2.97498435e-01
      2.97498435e-01 2.97498435e-01 2.97498435e-01 2.97498435e-01
      2.90804058e-01 2.58567333e-01 2.90804058e-01 2.90804058e-01
      2.90804058e-01 2.90804058e-01 2.90804058e-01 2.90804058e-01
      2.90804058e-01 2.90804058e-01 2.90804058e-01 2.90804058e-01</_>
    <_>
      2.82435209e-01 2.88781881e-01 2.88781881e-01 2.88781881e-01
      2.88781881e-01 2.88781881e-01 2.88781881e-01 2.88781881e-01
      2.88781881e-01 2.88781881e-01 2.88781881e-01 2.88781881e-01
      3.01615924e-01 3.01615924e-01 3.01615924e-01 2.46407777e-01
      1.92452878e-01 2.83693314e-01 3.01615924e-01 3.01615924e-01
      3.01615924e-01 3.01615924e-01 3.01615924e-01 3.01615924e-01
      2.94734597e-01 2.03718871e-01 2.94734597e-01 2.94734597e-01
      2.94734597e-01 2.94734597e-01 2.94734597e-01 2.94734597e-01
      2.94734597e-01 2.94734597e-01 2.94734597e-01 2.94734597e-01</_>
    <_>
      2.88259089e-01 2.88259089e-01 2.88259089e-01 2.88259089e-01
      2.88259089e-01 2.88259089e-01 2.88259089e-01 2.88259089e-01
      2.88259089e-01 2.88259089e-01 2.88259089e-01 2.88259089e-01
      2.95868695e-01 2.95868695e-01 2.95868695e-01 2.95868695e-01
      1.84722722e-01 2.95868695e-01 2.95868695e-01 2.95868695e-01
      2.95868695e-01 2.95868695e-01 2.95868695e-01 2.95868695e-01
      2.92918652e-01 2.72898316e-01 2.92918652e-01 2.92918652e-01
      2.92918652e-01 2.92918652e-01 2.92918652e-01 2.54138052e-01
      2.92918652e-01 2.92918652e-01 2.92918652e-01 2.92918652e-01</_>
    <_>
      2.88259089e-01 2.88259089e-01 2.88259089e-01 2.88259089e-01
      2.88259089e-01 2.88259089e-01 2.88259089e-01 2.88259089e-01
      2.88259089e-01 2.88259089e-01 2.88259089e-01 2.88259089e-01
      2.94478983e-01 2.94478983e-01 2.94478983e-01 2.94478983e-01
      2.07752153e-01 2.94478983e-01 2.94478983e-01 2.94478983e-01
      2.94478983e-01 2.94478983e-01 2.94478983e-01 2.94478983e-01
      2.91032046e-01 2.55725712e-01 2.91032046e-01 2.91032046e-01
      2.91032046e-01 2.91032046e-01 2.91032046e-01 2.91032046e-01
      2.91032046e-01 2.91032046e-01 2.91032046e-01 2.91032046e-01</_>
    <_>
      2.88259089e-01 2.88259089e-01 2.88259089e-01 2.88259089e-01
      2.88259089e-01 2.88259089e-01 2.88259089e-01 2.88259089e-01
      2.88259089e-01 2.88259089e-01 2.88259089e-01 2.88259089e-01
      2.96078056e-01 2.88986832e-01 2.96078056e-01 2.96078056e-01
      1.92108840e-01 2.96078056e-01 2.96078056e-01 2.96078056e-01
      2.96078056e-01 2.96078056e-01 2.96078056e-01 2.96078056e-01
      3.01939249e-01 2.28406787e-01 3.01939249e-01 3.01939249e-01
      2.12960631e-01 3.01939249e-01 3.01939249e-01 3.01939249e-01
      3.01939249e-01 3.01939249e-01 2.80989766e-01 3.01939249e-01</_>
    <_>
      2.88259089e-01 2.88259089e-01 2.88259089e-01 2.88259089e-01
      2.88259089e-01 2.88259089e-01 2.88259089e-01 2.88259089e-01
      2.88259089e-01 2.88259089e-01 2.88259089e-01 2.88259089e-01
      2.99220234e-01 2.99220234e-01 2.99220234e-01 2.99220234e-01
      1.89385042e-01 2.99220234e-01 2.99220234e-01 2.99220234e-01
      2.99220234e-01 2.99220234e-01 2.56546080e-01 2.99220234e-01
      2.99961597e-01 2.89164692e-01 2.99961597e-01 2.99961597e-01
      2.89257914e-01 2.99961597e-01 2.99961597e-01 2.51431078e-01
      2.99961597e-01 2.99961597e-01 2.16062531e-01 2.99961597e-01</_>
    <_>
      2.88259089e-01 2.88259089e-01 2.88259089e-01 2.88259089e-01
      2.88259089e-01 2.88259089e-01 2.88259089e-01 2.88259089e-01
      2.88259089e-01 2.88259089e-01 2.88259089e-01 2.88259089e-01
      2.92464346e-01 2.92464346e-01 2.92464346e-01 2.92464346e-01
      2.49379739e-01 2.92464346e-01 2.92464346e-01 2.92464346e-01
      2.92464346e-01 2.92464346e-01 2.82016695e-01 2.92464346e-01
      2.99508542e-01 2.99508542e-01 2.99508542e-01 2.99508542e-01
      2.99508542e-01 2.99508542e-01 2.99508542e-01 2.30506837e-01
      2.99508542e-01 2.99508542e-01 2.16379315e-01 2.99508542e-01</_>
    <_>
      2.91083336e-01 2.55081505e-01 2.91083336e-01 2.91083336e-01
      2.91083336e-01 2.91083336e-01 2.91083336e-01 2.91083336e-01
      2.91083336e-01 2.91083336e-01 2.91083336e-01 2.91083336e-01
      2.95265973e-01 2.95265973e-01 2.95265973e-01 2.95265973e-01
      2.55392760e-01 2.95265973e-01 2.95265973e-01 2.95265973e-01
      2.95265973e-01 2.95265973e-01 2.44957462e-01 2.95265973e-01
      2.98788548e-01 2.98788548e-01 2.98788548e-01 2.98788548e-01
      2.98788548e-01 2.98788548e-01 2.98788548e-01 2.22582623e-01
      2.98788548e-01 2.98788548e-01 2.33934581e-01 2.98788548e-01</_>
    <_>
      2.92613864e-01 2.34999001e-01 2.92613864e-01 2.92613864e-01
      2.92613864e-01 2.92613864e-01 2.92613864e-01 2.92613864e-01
      2.92613864e-01 2.92613864e-01 2.92613864e-01 2.92613864e-01
      2.88568616e-01 2.88568616e-01 2.88568616e-01 2.88568616e-01
      2.85570204e-01 2.88568616e-01 2.88568616e-01 2.88568616e-01
      2.88568616e-01 2.88568616e-01 2.87832648e-01 2.88568616e-01
      3.05032581e-01 2.98308372e-01 3.05032581e-01 3.05032581e-01
      2.98833519e-01 3.05032581e-01 3.05032581e-01 2.02990174e-01
      3.05032581e-01 3.05032581e-01 1.81930885e-01 3.05032581e-01</_>
    <_>
      2.88259089e-01 2.88259089e-01 2.88259089e-01 2.88259089e-01
      2.88259089e-01 2.88259089e-01 2.88259089e-01 2.88259089e-01
      2.88259089e-01 2.88259089e-01 2.88259089e-01 2.88259089e-01
      2.88259089e-01 2.88259089e-01 2.88259089e-01 2.88259089e-01
      2.88259089e-01 2.88259089e-01 2.88259089e-01 2.88259089e-01
      2.88259089e-01 2.88259089e-01 2.88259089e-01 2.88259089e-01
      2.29170918e-01 3.03030401e-01 2.98691571e-01 2.31261894e-01
      3.03030401e-01 3.03030401e-01 3.03030401e-01 3.03030401e-01
      3.03030401e-01 2.59103328e-01 3.03030401e-01 3.03030401e-01</_>
    <_>
      3.02912146e-01 1.94756687e-01 3.02912146e-01 3.02912146e-01
      3.02912146e-01 3.02912146e-01 2.59604901e-01 2.56605625e-01
      3.02912146e-01 3.02912146e-01 3.02912146e-01 3.02912146e-01
      2.94736564e-01 2.94736564e-01 2.94736564e-01 2.94736564e-01
      2.03688413e-01 2.94736564e-01 2.94736564e-01 2.94736564e-01
      2.94736564e-01 2.94736564e-01 2.94736564e-01 2.94736564e-01
      2.99834818e-01 2.63634175e-01 2.99834818e-01 2.99834818e-01
      2.69736260e-01 2.99834818e-01 2.99834818e-01 2.99834818e-01
      2.99834818e-01 2.99834818e-01 2.13623211e-01 2.99834818e-01</_>
    <_>
      2.92577416e-01 2.35498503e-01 2.92577416e-01 2.92577416e-01
      2.92577416e-01 2.92577416e-01 2.92577416e-01 2.92577416e-01
      2.92577416e-01 2.92577416e-01 2.92577416e-01 2.92577416e-01
      2.96043962e-01 2.96043962e-01 2.96043962e-01 2.96043962e-01
      1.81601912e-01 2.96043962e-01 2.96043962e-01 2.96043962e-01
      2.96043962e-01 2.96043962e-01 2.96043962e-01 2.96043962e-01
      2.89578378e-01 2.73302883e-01 2.89578378e-01 2.89578378e-01
      2.89578378e-01 2.89578378e-01 2.89578378e-01 2.89578378e-01
      2.89578378e-01 2.89578378e-01 2.89578378e-01 2.89578378e-01</_>
    <_>
      2.90834665e-01 2.66509920e-01 2.90834665e-01 2.90834665e-01
      2.90834665e-01 2.90834665e-01 2.90834665e-01 2.83228189e-01
      2.90834665e-01 2.90834665e-01 2.90834665e-01 2.90834665e-01
      2.96398491e-01 2.96398491e-01 2.96398491e-01 2.96398491e-01
      1.99927703e-01 2.96398491e-01 2.96398491e-01 2.96398491e-01
      2.96398491e-01 2.96398491e-01 2.80261278e-01 2.96398491e-01
      2.92763650e-01 2.59594500e-01 2.92763650e-01 2.92763650e-01
      2.92763650e-01 2.92763650e-01 2.92763650e-01 2.69406229e-01
      2.92763650e-01 2.92763650e-01 2.92763650e-01 2.92763650e-01</_>
    <_>
      2.89392799e-01 2.75460154e-01 2.89392799e-01 2.89392799e-01
      2.89392799e-01 2.89392799e-01 2.89392799e-01 2.89392799e-01
      2.89392799e-01 2.89392799e-01 2.89392799e-01 2.89392799e-01
      2.95987338e-01 2.95987338e-01 2.95987338e-01 2.95987338e-01
      1.82616457e-01 2.95987338e-01 2.95987338e-01 2.95987338e-01
      2.95987338e-01 2.95987338e-01 2.95987338e-01 2.95987338e-01
      2.89021581e-01 2.80030876e-01 2.89021581e-01 2.89021581e-01
      2.89021581e-01 2.89021581e-01 2.89021581e-01 2.89021581e-01
      2.89021581e-01 2.89021581e-01 2.88721085e-01 2.89021581e-01</_>
    <_>
      2.90934056e-01 2.56951541e-01 2.90934056e-01 2.90934056e-01
      2.90934056e-01 2.90934056e-01 2.90934056e-01 2.90934056e-01
      2.90934056e-01 2.90934056e-01 2.90934056e-01 2.90934056e-01
      2.95620233e-01 2.95620233e-01 2.95620233e-01 2.95620233e-01
      1.89054281e-01 2.95620233e-01 2.95620233e-01 2.95620233e-01
      2.95620233e-01 2.95620233e-01 2.95620233e-01 2.95620233e-01
      2.90934294e-01 2.68690646e-01 2.90934294e-01 2.90934294e-01
      2.89964169e-01 2.90934294e-01 2.90934294e-01 2.90934294e-01
      2.90934294e-01 2.90934294e-01 2.81129956e-01 2.90934294e-01</_>
    <_>
      2.94142276e-01 2.94142276e-01 2.94142276e-01 2.94142276e-01
      2.81752616e-01 2.94142276e-01 2.94142276e-01 2.94142276e-01
      2.94142276e-01 2.94142276e-01 2.29084030e-01 2.94142276e-01
      2.88259089e-01 2.88259089e-01 2.88259089e-01 2.88259089e-01
      2.88259089e-01 2.88259089e-01 2.88259089e-01 2.88259089e-01
      2.88259089e-01 2.88259089e-01 2.88259089e-01 2.88259089e-01
      2.02205017e-01 2.96878010e-01 2.96878010e-01 2.73461044e-01
      2.96878010e-01 2.96878010e-01 2.96878010e-01 2.96878010e-01
      2.96878010e-01 2.96878010e-01 2.96878010e-01 2.96878010e-01</_>
    <_>
      2.95296282e-01 2.95296282e-01 2.95296282e-01 2.95296282e-01
      1.94552004e-01 2.95296282e-01 2.95296282e-01 2.95296282e-01
      2.95296282e-01 2.95296282e-01 2.95296282e-01 2.95296282e-01
      2.90654242e-01 2.60970414e-01 2.90654242e-01 2.90654242e-01
      2.90654242e-01 2.90654242e-01 2.90654242e-01 2.90157080e-01
      2.90654242e-01 2.90654242e-01 2.90654242e-01 2.90654242e-01
      2.88259089e-01 2.88259089e-01 2.88259089e-01 2.88259089e-01
      2.88259089e-01 2.88259089e-01 2.88259089e-01 2.88259089e-01
      2.88259089e-01 2.88259089e-01 2.88259089e-01 2.88259089e-01</_>
    <_>
      2.89119035e-01 2.89119035e-01 2.87257016e-01 2.89119035e-01
      2.89119035e-01 2.89119035e-01 2.89119035e-01 2.89119035e-01
      2.89119035e-01 2.89119035e-01 2.80528396e-01 2.89119035e-01
      2.88259089e-01 2.88259089e-01 2.88259089e-01 2.88259089e-01
      2.88259089e-01 2.88259089e-01 2.88259089e-01 2.88259089e-01
      2.88259089e-01 2.88259089e-01 2.88259089e-01 2.88259089e-01
      2.72314638e-01 2.98442245e-01 2.98442245e-01 2.12331504e-01
      2.98442245e-01 2.98442245e-01 2.98442245e-01 2.98442245e-01
      2.98442245e-01 2.75985360e-01 2.98442245e-01 2.98442245e-01</_>
    <_>
      3.10253084e-01 2.05059022e-01 3.10253084e-01 3.10253084e-01
      2.77641028e-01 3.10253084e-01 3.10253084e-01 1.63588375e-01
      3.10253084e-01 3.10253084e-01 2.84515828e-01 3.10253084e-01
      2.91217387e-01 2.91217387e-01 2.91217387e-01 2.91217387e-01
      2.91217387e-01 2.53390759e-01 2.91217387e-01 2.91217387e-01
      2.91217387e-01 2.91217387e-01 2.91217387e-01 2.91217387e-01
      2.09236965e-01 3.83611113e-01 1.81979716e-01 2.12832287e-01
      3.83611113e-01 1.54322863e-01 2.56117254e-01 3.83611113e-01
      2.78124630e-01 2.65412688e-01 3.83611113e-01 2.19395965e-01</_>
    <_>
      2.71582782e-01 1.64389357e-01 2.30497405e-01 3.33214909e-01
      3.33214909e-01 3.33214909e-01 2.76907861e-01 2.39995852e-01
      2.05648839e-01 3.33214909e-01 3.33214909e-01 3.33214909e-01
      2.91466802e-01 2.91466802e-01 2.91466802e-01 2.81069547e-01
      2.91466802e-01 2.91466802e-01 2.91466802e-01 2.91466802e-01
      2.91466802e-01 2.61836469e-01 2.91466802e-01 2.91466802e-01
      2.77416825e-01 2.90767878e-01 2.90767878e-01 2.90767878e-01
      2.90767878e-01 2.90767878e-01 2.86850542e-01 2.90767878e-01
      2.90767878e-01 2.77375877e-01 2.90767878e-01 2.90767878e-01</_>
    <_>
      2.94790715e-01 2.05509067e-01 3.16520333e-01 3.19586694e-01
      3.19586694e-01 3.19586694e-01 2.14356646e-01 2.66750008e-01
      1.93823799e-01 3.19586694e-01 3.19586694e-01 3.19586694e-01
      3.01965028e-01 3.01965028e-01 3.01965028e-01 2.11795494e-01
      3.01965028e-01 3.01965028e-01 2.94387370e-01 3.01965028e-01
      3.01965028e-01 2.11696565e-01 3.01965028e-01 3.01965028e-01
      2.88259089e-01 2.88259089e-01 2.88259089e-01 2.88259089e-01
      2.88259089e-01 2.88259089e-01 2.88259089e-01 2.88259089e-01
      2.88259089e-01 2.88259089e-01 2.88259089e-01 2.88259089e-01</_>
    <_>
      3.11475247e-01 1.96346790e-01 3.11475247e-01 3.11475247e-01
      3.11475247e-01 3.11475247e-01 2.73148417e-01 2.60478586e-01
      1.99353427e-01 3.11475247e-01 3.11475247e-01 3.11475247e-01
      2.93647170e-01 2.93647170e-01 2.93647170e-01 2.39159778e-01
      2.93647170e-01 2.93647170e-01 2.93647170e-01 2.93647170e-01
      2.93647170e-01 2.78534651e-01 2.93647170e-01 2.93647170e-01
      2.88259089e-01 2.88259089e-01 2.88259089e-01 2.88259089e-01
      2.88259089e-01 2.88259089e-01 2.88259089e-01 2.88259089e-01
      2.88259089e-01 2.88259089e-01 2.88259089e-01 2.88259089e-01</_>
    <_>
      1.82775497e-01 1.72123700e-01 1.70471400e-01 3.28198820e-01
      3.28198820e-01 3.28198820e-01 3.28198820e-01 2.32724041e-01
      3.10588509e-01 3.28198820e-01 3.28198820e-01 3.28198820e-01
      2.33918220e-01 3.02535415e-01 2.94470549e-01 2.19308123e-01
      3.02535415e-01 3.02535415e-01 3.02535415e-01 3.02535415e-01
      3.02535415e-01 2.74278551e-01 3.02535415e-01 3.02535415e-01
      2.65095502e-01 2.90270060e-01 2.90270060e-01 2.90270060e-01
      2.90270060e-01 2.90270060e-01 2.90270060e-01 2.90270060e-01
      2.90270060e-01 2.90270060e-01 2.90270060e-01 2.90270060e-01</_>
    <_>
      2.34395817e-01 1.89015329e-01 1.83759406e-01 3.21252376e-01
      3.21252376e-01 3.21252376e-01 3.21252376e-01 2.30559364e-01
      3.11086833e-01 3.21252376e-01 3.21252376e-01 3.21252376e-01
      2.61057287e-01 2.94533104e-01 2.94533104e-01 2.70819634e-01
      2.94533104e-01 2.94533104e-01 2.94533104e-01 2.94533104e-01
      2.94533104e-01 2.73523092e-01 2.94533104e-01 2.94533104e-01
      2.88259089e-01 2.88259089e-01 2.88259089e-01 2.88259089e-01
      2.88259089e-01 2.88259089e-01 2.88259089e-01 2.88259089e-01
      2.88259089e-01 2.88259089e-01 2.88259089e-01 2.88259089e-01</_>
    <_>
      2.48724133e-01 1.90136984e-01 2.51770318e-01 3.32591027e-01
      3.32591027e-01 3.32591027e-01 2.47979954e-01 2.62119323e-01
      2.03399912e-01 3.32591027e-01 3.32591027e-01 3.32591027e-01
      2.90477574e-01 2.90477574e-01 2.90477574e-01 2.90477574e-01
      2.90477574e-01 2.90477574e-01 2.90477574e-01 2.90477574e-01
      2.62579441e-01 2.90477574e-01 2.90477574e-01 2.90477574e-01
      2.91645944e-01 2.91645944e-01 2.91645944e-01 2.70306796e-01
      2.91645944e-01 2.71010071e-01 2.91645944e-01 2.91645944e-01
      2.91645944e-01 2.91645944e-01 2.91645944e-01 2.91645944e-01</_>
    <_>
      2.54688680e-01 2.08739057e-01 2.60893524e-01 3.29880148e-01
      3.29880148e-01 3.29880148e-01 2.62747586e-01 1.78060457e-01
      2.57939607e-01 3.29880148e-01 3.29880148e-01 3.29880148e-01
      2.88730592e-01 2.88730592e-01 2.88730592e-01 2.88730592e-01
      2.88730592e-01 2.88730592e-01 2.88730592e-01 2.83012062e-01
      2.88730592e-01 2.88730592e-01 2.88730592e-01 2.88730592e-01
      2.78675079e-01 3.03624690e-01 2.59917706e-01 2.61240661e-01
      3.03624690e-01 3.03624690e-01 2.93646514e-01 3.03624690e-01
      3.03624690e-01 2.27943882e-01 3.03624690e-01 3.03624690e-01</_>
    <_>
      2.46347681e-01 2.14057609e-01 1.98287755e-01 3.31894219e-01
      3.31894219e-01 3.31894219e-01 2.77463645e-01 2.09237784e-01
      2.62999594e-01 3.31894219e-01 3.31894219e-01 3.31894219e-01
      2.88259089e-01 2.88259089e-01 2.88259089e-01 2.88259089e-01
      2.88259089e-01 2.88259089e-01 2.88259089e-01 2.88259089e-01
      2.88259089e-01 2.88259089e-01 2.88259089e-01 2.88259089e-01
      2.89574564e-01 2.89574564e-01 2.73346990e-01 2.89574564e-01
      2.89574564e-01 2.89574564e-01 2.89574564e-01 2.89574564e-01
      2.89574564e-01 2.89574564e-01 2.89574564e-01 2.89574564e-01</_>
    <_>
      2.29056880e-01 1.80462927e-01 2.25795314e-01 3.37037563e-01
      3.37037563e-01 3.37037563e-01 2.65170157e-01 2.47519240e-01
      2.17871636e-01 3.37037563e-01 3.37037563e-01 3.37037563e-01
      2.88259089e-01 2.88259089e-01 2.88259089e-01 2.88259089e-01
      2.88259089e-01 2.88259089e-01 2.88259089e-01 2.88259089e-01
      2.88259089e-01 2.88259089e-01 2.88259089e-01 2.88259089e-01
      2.66033977e-01 2.97402412e-01 2.97402412e-01 2.42945492e-01
      2.97402412e-01 2.89795399e-01 2.97402412e-01 2.97402412e-01
      2.97402412e-01 2.75072277e-01 2.97402412e-01 2.97402412e-01</_>
    <_>
      3.20492476e-01 2.09458470e-01 3.20492476e-01 3.20492476e-01
      2.36264989e-01 3.20492476e-01 3.20492476e-01 1.76095456e-01
      3.20492476e-01 3.20492476e-01 2.10643664e-01 3.20492476e-01
      2.96351761e-01 2.36354843e-01 2.96351761e-01 2.96351761e-01
      2.96351761e-01 2.96351761e-01 2.96351761e-01 2.50861615e-01
      2.96351761e-01 2.96351761e-01 2.96351761e-01 2.96351761e-01
      2.88259089e-01 2.88259089e-01 2.88259089e-01 2.88259089e-01
      2.88259089e-01 2.88259089e-01 2.88259089e-01 2.88259089e-01
      2.88259089e-01 2.88259089e-01 2.88259089e-01 2.88259089e-01</_>
    <_>
      2.59202182e-01 1.71350658e-01 2.49839976e-01 3.27448338e-01
      3.27448338e-01 3.27448338e-01 2.99062014e-01 1.97404370e-01
      2.56944388e-01 3.27448338e-01 3.27448338e-01 3.27448338e-01
      2.88909554e-01 2.88909554e-01 2.88909554e-01 2.83173591e-01
      2.88909554e-01 2.88909554e-01 2.88909554e-01 2.88909554e-01
      2.88909554e-01 2.86772609e-01 2.88909554e-01 2.88909554e-01
      2.86933959e-01 2.91081995e-01 2.91081995e-01 2.91081995e-01
      2.91081995e-01 2.91081995e-01 2.59755492e-01 2.91081995e-01
      2.91081995e-01 2.91081995e-01 2.91081995e-01 2.91081995e-01</_>
    <_>
      2.92366415e-01 1.24835730e-01 2.86004156e-01 3.36527348e-01
      1.85644284e-01 3.36527348e-01 3.36527348e-01 2.32293949e-01
      3.36527348e-01 3.36527348e-01 2.14123324e-01 3.36527348e-01
      2.95043945e-01 2.68252760e-01 2.95043945e-01 2.95043945e-01
      2.95043945e-01 2.95043945e-01 2.95043945e-01 2.33629897e-01
      2.95043945e-01 2.95043945e-01 2.95043945e-01 2.95043945e-01
      2.88259089e-01 2.88259089e-01 2.88259089e-01 2.88259089e-01
      2.88259089e-01 2.88259089e-01 2.88259089e-01 2.88259089e-01
      2.88259089e-01 2.88259089e-01 2.88259089e-01 2.88259089e-01</_>
    <_>
      3.33962053e-01 1.42666027e-01 3.33962053e-01 3.33962053e-01
      1.52654201e-01 3.33962053e-01 3.33962053e-01 1.96868673e-01
      3.33962053e-01 3.33962053e-01 1.48336887e-01 3.33962053e-01
      2.96010137e-01 2.70639658e-01 2.96010137e-01 2.96010137e-01
      2.96010137e-01 2.96010137e-01 2.96010137e-01 2.18120009e-01
      2.96010137e-01 2.96010137e-01 2.96010137e-01 2.96010137e-01
      2.91181535e-01 2.91181535e-01 2.91181535e-01 2.91181535e-01
      2.91181535e-01 2.53843904e-01 2.91181535e-01 2.91181535e-01
      2.91181535e-01 2.91181535e-01 2.91181535e-01 2.91181535e-01</_>
    <_>
      3.33828568e-01 1.61190882e-01 3.33828568e-01 3.33828568e-01
      1.88404828e-01 3.33828568e-01 3.33828568e-01 1.43578425e-01
      3.33828568e-01 3.33828568e-01 1.51784912e-01 3.33828568e-01
      2.93397903e-01 2.93397903e-01 2.93397903e-01 2.93397903e-01
      2.93397903e-01 2.93397903e-01 2.93397903e-01 2.23969772e-01
      2.93397903e-01 2.93397903e-01 2.93397903e-01 2.93397903e-01
      2.94130534e-01 2.94130534e-01 2.94130534e-01 2.79396623e-01
      2.94130534e-01 2.32100874e-01 2.94130534e-01 2.94130534e-01
      2.94130534e-01 2.94130534e-01 2.94130534e-01 2.94130534e-01</_>
    <_>
      3.23997587e-01 1.18338555e-01 3.38246644e-01 3.38246644e-01
      1.45451859e-01 3.38246644e-01 3.38246644e-01 1.74751580e-01
      3.38246644e-01 3.38246644e-01 1.58341184e-01 3.38246644e-01
      2.97783941e-01 2.66253978e-01 2.97783941e-01 2.97783941e-01
      2.97783941e-01 2.97783941e-01 2.97783941e-01 1.98445156e-01
      2.97783941e-01 2.97783941e-01 2.97783941e-01 2.97783941e-01
      2.91850269e-01 2.91850269e-01 2.91850269e-01 2.91850269e-01
      2.91850269e-01 2.45237306e-01 2.91850269e-01 2.91850269e-01
      2.91850269e-01 2.91850269e-01 2.91850269e-01 2.91850269e-01</_>
    <_>
      3.34922105e-01 1.33151710e-01 3.34922105e-01 3.34922105e-01
      1.37063548e-01 3.34922105e-01 3.34922105e-01 1.82943419e-01
      3.34922105e-01 3.34922105e-01 1.71134546e-01 3.34922105e-01
      3.02913964e-01 2.16605604e-01 3.02913964e-01 3.02913964e-01
      3.02913964e-01 3.02913964e-01 3.02913964e-01 1.80240110e-01
      3.02913964e-01 3.02913964e-01 3.02913964e-01 3.02913964e-01
      2.96561301e-01 2.96561301e-01 2.96561301e-01 2.73086518e-01
      2.96561301e-01 2.34892651e-01 2.96561301e-01 2.96561301e-01
      2.96561301e-01 2.75224507e-01 2.96561301e-01 2.96561301e-01</_>
    <_>
      3.33101004e-01 1.54019058e-01 3.33101004e-01 3.33101004e-01
      1.57279238e-01 3.33101004e-01 3.33101004e-01 1.71935946e-01
      3.33101004e-01 3.33101004e-01 1.76070869e-01 3.33101004e-01
      2.97393292e-01 2.53751606e-01 2.97393292e-01 2.97393292e-01
      2.97393292e-01 2.97393292e-01 2.97393292e-01 2.19568983e-01
      2.97393292e-01 2.97393292e-01 2.97393292e-01 2.97393292e-01
      2.91383266e-01 2.91383266e-01 2.91383266e-01 2.67707497e-01
      2.91383266e-01 2.76367426e-01 2.91383266e-01 2.91383266e-01
      2.91383266e-01 2.91383266e-01 2.91383266e-01 2.91383266e-01</_>
    <_>
      3.29972357e-01 1.53975934e-01 3.29972357e-01 3.29972357e-01
      1.69248194e-01 3.29972357e-01 3.29972357e-01 1.92599386e-01
      3.29972357e-01 3.29972357e-01 1.90264791e-01 3.29972357e-01
      2.93606788e-01 2.90051371e-01 2.93606788e-01 2.93606788e-01
      2.93606788e-01 2.93606788e-01 2.93606788e-01 2.25581124e-01
      2.93606788e-01 2.93606788e-01 2.93606788e-01 2.93606788e-01
      2.89585918e-01 2.89585918e-01 2.89585918e-01 2.73214549e-01
      2.89585918e-01 2.89585918e-01 2.89585918e-01 2.89585918e-01
      2.89585918e-01 2.89585918e-01 2.89585918e-01 2.89585918e-01</_>
    <_>
      3.31687897e-01 1.50358602e-01 3.31687897e-01 3.31687897e-01
      1.57855764e-01 3.31687897e-01 3.31687897e-01 1.87072650e-01
      3.31687897e-01 3.31687897e-01 1.84468627e-01 3.31687897e-01
      3.04193825e-01 2.04862013e-01 3.04193825e-01 3.04193825e-01
      3.04193825e-01 3.04193825e-01 3.04193825e-01 1.72200561e-01
      3.04193825e-01 3.04193825e-01 3.04193825e-01 3.04193825e-01
      2.96521008e-01 2.96521008e-01 2.96521008e-01 2.45742857e-01
      2.96521008e-01 2.39583880e-01 2.96521008e-01 2.96521008e-01
      2.96521008e-01 2.96521008e-01 2.96521008e-01 2.96521008e-01</_>
    <_>
      2.80433267e-01 1.25392511e-01 2.39304632e-01 3.19776833e-01
      3.19776833e-01 3.19776833e-01 3.19776833e-01 1.87015682e-01
      3.07240009e-01 3.19776833e-01 3.19776833e-01 3.19776833e-01
      2.88887084e-01 2.88887084e-01 2.88887084e-01 2.81247407e-01
      2.88887084e-01 2.88887084e-01 2.88887084e-01 2.88887084e-01
      2.88887084e-01 2.88887084e-01 2.88887084e-01 2.88887084e-01
      2.88259089e-01 2.88259089e-01 2.88259089e-01 2.88259089e-01
      2.88259089e-01 2.88259089e-01 2.88259089e-01 2.88259089e-01
      2.88259089e-01 2.88259089e-01 2.88259089e-01 2.88259089e-01</_>
    <_>
      2.79721141e-01 1.30844116e-01 2.86424518e-01 3.35898489e-01
      1.72861755e-01 3.35898489e-01 3.35898489e-01 2.02878237e-01
      3.35898489e-01 3.35898489e-01 2.66895354e-01 3.35898489e-01
      2.89912552e-01 2.89912552e-01 2.89912552e-01 2.89912552e-01
      2.89912552e-01 2.89912552e-01 2.89912552e-01 2.69371182e-01
      2.89912552e-01 2.89912552e-01 2.89912552e-01 2.89912552e-01
      2.97111988e-01 2.97111988e-01 2.97111988e-01 2.91330487e-01
      2.97111988e-01 2.42673740e-01 2.97111988e-01 2.97111988e-01
      2.97111988e-01 2.97111988e-01 2.97111988e-01 2.42460951e-01</_>
    <_>
      3.15943897e-01 1.80645302e-01 3.15943897e-01 3.15943897e-01
      1.98007584e-01 3.15943897e-01 3.15943897e-01 2.03983158e-01
      3.15943897e-01 3.15943897e-01 2.91255534e-01 3.15943897e-01
      2.93839544e-01 2.25402460e-01 2.93839544e-01 2.93839544e-01
      2.93839544e-01 2.93839544e-01 2.93839544e-01 2.87820786e-01
      2.93839544e-01 2.93839544e-01 2.93839544e-01 2.93839544e-01
      2.89419144e-01 2.89419144e-01 2.89419144e-01 2.89419144e-01
      2.89419144e-01 2.82599479e-01 2.89419144e-01 2.89419144e-01
      2.89419144e-01 2.82154024e-01 2.89419144e-01 2.89419144e-01</_>
    <_>
      2.85432458e-01 1.34630859e-01 2.57639498e-01 3.31171721e-01
      2.02759624e-01 3.31171721e-01 3.31171721e-01 2.18672752e-01
      3.31171721e-01 3.31171721e-01 2.89375514e-01 3.31171721e-01
      2.88259089e-01 2.88259089e-01 2.88259089e-01 2.88259089e-01
      2.88259089e-01 2.88259089e-01 2.88259089e-01 2.88259089e-01
      2.88259089e-01 2.88259089e-01 2.88259089e-01 2.88259089e-01
      2.94976324e-01 2.94976324e-01 2.94976324e-01 2.93721735e-01
      2.94976324e-01 2.01667368e-01 2.94976324e-01 2.94976324e-01
      2.94976324e-01 2.94976324e-01 2.94976324e-01 2.94976324e-01</_>
    <_>
      3.11540991e-01 1.70012116e-01 3.11540991e-01 3.11540991e-01
      2.25154072e-01 3.11540991e-01 3.11540991e-01 2.09208786e-01
      3.11540991e-01 3.11540991e-01 3.11540991e-01 3.11540991e-01
      2.89529264e-01 2.73875266e-01 2.89529264e-01 2.89529264e-01
      2.89529264e-01 2.89529264e-01 2.89529264e-01 2.89529264e-01
      2.89529264e-01 2.89529264e-01 2.89529264e-01 2.89529264e-01
      2.92289555e-01 2.92289555e-01 2.92289555e-01 2.92289555e-01
      2.92289555e-01 2.39404276e-01 2.92289555e-01 2.92289555e-01
      2.92289555e-01 2.92289555e-01 2.92289555e-01 2.92289555e-01</_>
    <_>
      2.22033903e-01 1.44764856e-01 2.53548890e-01 3.37155640e-01
      1.89305782e-01 3.37155640e-01 3.37155640e-01 2.26595759e-01
      3.37155640e-01 3.37155640e-01 3.04733545e-01 3.37155640e-01
      2.95531541e-01 2.49923155e-01 2.95531541e-01 2.95531541e-01
      2.95531541e-01 2.95531541e-01 2.95531541e-01 2.47379035e-01
      2.95531541e-01 2.95531541e-01 2.95531541e-01 2.95531541e-01
      2.88259089e-01 2.88259089e-01 2.88259089e-01 2.88259089e-01
      2.88259089e-01 2.88259089e-01 2.88259089e-01 2.88259089e-01
      2.88259089e-01 2.88259089e-01 2.88259089e-01 2.88259089e-01</_>
    <_>
      1.49621725e-01 1.54650718e-01 1.53365895e-01 3.41946393e-01
      2.14360267e-01 3.07647556e-01 3.41946393e-01 2.90856540e-01
      3.41946393e-01 3.41946393e-01 3.41946393e-01 3.41946393e-01
      2.59155065e-01 2.75849789e-01 2.53414840e-01 3.00209761e-01
      3.00209761e-01 3.00209761e-01 3.00209761e-01 2.61762172e-01
      3.00209761e-01 3.00209761e-01 3.00209761e-01 3.00209761e-01
      2.89387316e-01 2.89387316e-01 2.89387316e-01 2.89387316e-01
      2.89387316e-01 2.89387316e-01 2.89387316e-01 2.89387316e-01
      2.89387316e-01 2.89387316e-01 2.89387316e-01 2.75522858e-01</_>
    <_>
      1.58012122e-01 1.38808966e-01 1.26670927e-01 3.47102851e-01
      1.75898492e-01 3.31474841e-01 3.47102851e-01 2.69355744e-01
      3.47102851e-01 3.47102851e-01 3.47102851e-01 3.47102851e-01
      3.03935617e-01 2.02902958e-01 2.76703954e-01 3.03935617e-01
      3.03935617e-01 3.03935617e-01 3.03935617e-01 2.18715966e-01
      3.03935617e-01 3.03935617e-01 3.03935617e-01 3.03935617e-01
      3.09751183e-01 3.09751183e-01 3.09751183e-01 2.60314107e-01
      3.09751183e-01 1.77280098e-01 3.09751183e-01 3.09751183e-01
      3.09751183e-01 2.92192638e-01 3.09751183e-01 2.11589739e-01</_>
    <_>
      2.71122545e-01 1.14098653e-01 2.50368446e-01 3.17955464e-01
      3.17955464e-01 3.17955464e-01 3.17955464e-01 1.97097674e-01
      3.17955464e-01 3.17955464e-01 3.17955464e-01 3.17955464e-01
      2.88259089e-01 2.88259089e-01 2.88259089e-01 2.88259089e-01
      2.88259089e-01 2.88259089e-01 2.88259089e-01 2.88259089e-01
      2.88259089e-01 2.88259089e-01 2.88259089e-01 2.88259089e-01
      2.90366858e-01 2.90366858e-01 2.63925374e-01 2.90366858e-01
      2.90366858e-01 2.90366858e-01 2.90366858e-01 2.90366858e-01
      2.90366858e-01 2.90366858e-01 2.90366858e-01 2.90366858e-01</_>
    <_>
      2.49338195e-01 1.88818902e-01 1.84513092e-01 3.14237207e-01
      3.14237207e-01 2.80996680e-01 3.14237207e-01 3.07926297e-01
      3.14237207e-01 3.14237207e-01 3.14237207e-01 3.14237207e-01
      2.89560139e-01 2.89560139e-01 2.73515671e-01 2.89560139e-01
      2.89560139e-01 2.89560139e-01 2.89560139e-01 2.89560139e-01
      2.89560139e-01 2.89560139e-01 2.89560139e-01 2.89560139e-01
      2.88259089e-01 2.88259089e-01 2.88259089e-01 2.88259089e-01
      2.88259089e-01 2.88259089e-01 2.88259089e-01 2.88259089e-01
      2.88259089e-01 2.88259089e-01 2.88259089e-01 2.88259089e-01</_>
    <_>
      2.24872410e-01 2.17787176e-01 1.55613795e-01 3.19641739e-01
      3.19641739e-01 2.97057450e-01 3.19641739e-01 3.04939687e-01
      2.83434957e-01 3.19641739e-01 3.19641739e-01 3.19641739e-01
      2.94179052e-01 2.94179052e-01 2.12381765e-01 2.94179052e-01
      2.94179052e-01 2.94179052e-01 2.94179052e-01 2.94179052e-01
      2.94179052e-01 2.94179052e-01 2.94179052e-01 2.94179052e-01
      2.88259089e-01 2.88259089e-01 2.88259089e-01 2.88259089e-01
      2.88259089e-01 2.88259089e-01 2.88259089e-01 2.88259089e-01
      2.88259089e-01 2.88259089e-01 2.88259089e-01 2.88259089e-01</_>
    <_>
      2.02905148e-01 2.02254519e-01 2.54534632e-01 3.37054342e-01
      3.37054342e-01 3.37054342e-01 2.21902832e-01 2.70609468e-01
      2.13688999e-01 3.37054342e-01 3.37054342e-01 3.37054342e-01
      2.90798604e-01 2.90798604e-01 2.90798604e-01 2.90798604e-01
      2.90798604e-01 2.90798604e-01 2.90798604e-01 2.90798604e-01
      2.58635074e-01 2.90798604e-01 2.90798604e-01 2.90798604e-01
      2.95368433e-01 2.96655416e-01 2.96655416e-01 2.40803242e-01
      2.96655416e-01 2.88043678e-01 2.96655416e-01 2.96655416e-01
      2.96655416e-01 2.54563212e-01 2.96655416e-01 2.96655416e-01</_>
    <_>
      2.19232872e-01 2.59534419e-01 1.34030268e-01 3.34623486e-01
